nep4_zbl 4 Zr Ti Pb O 
zbl 0.75 1.5
cutoff 8 6 274 114 -1 -1 0.65
n_max 8 8
basis_size 12 12
l_max 4 2 1
ANN 60 0
  1.6293353e-04
  3.7942945e-03
 -2.1106885e-01
 -2.6331173e-04
 -4.6690503e-01
  8.3378016e-04
  3.3417934e-01
  8.1436157e-02
  4.8554540e-03
 -4.1101489e-02
 -1.5521358e-03
 -4.3818203e-05
 -3.1072770e-03
 -3.3549268e-03
  1.7122929e-03
  3.1201041e-04
  2.7593933e-03
 -2.0122000e-03
  2.9554991e-03
  3.2808827e-03
  1.4019632e-02
 -1.6068325e-03
  6.3424616e-04
 -3.1769989e-04
  2.8611327e-04
 -1.2449635e-03
  2.1140612e-04
 -1.2244448e-03
  3.0277250e-03
  2.6612822e-03
 -6.7011034e-03
 -5.4109124e-03
 -3.4601814e-03
 -1.6669834e-02
  2.4103266e-04
  2.1752222e-03
  7.7628199e-04
 -1.4483719e-03
  8.0064742e-04
 -3.1100199e-04
  6.7209169e-02
 -1.4554418e-02
 -5.6519233e-02
  5.7397387e-03
 -1.7659800e-03
 -1.2373222e-03
 -1.5536038e-03
  7.5906957e-04
  2.1263387e-03
 -3.9351769e-03
  4.2714751e-03
 -1.4172219e-03
 -1.0485893e-04
  3.8897598e-01
  1.6376105e-03
 -5.5160135e-04
  5.5277310e-02
 -2.6915835e-03
  5.5240782e-04
 -1.5727585e-03
 -6.5156055e-04
  2.7890150e-03
 -5.5307192e-03
 -3.9802892e-03
  1.1095847e-03
 -2.3224257e-02
 -3.6603883e-01
 -5.3297865e-01
 -1.7186466e-01
  7.6877463e-01
 -1.3278636e-01
 -2.9370314e-01
 -1.1318149e-03
  3.5629253e-04
 -2.2432660e-01
 -1.2623963e-03
  6.2392991e-02
 -3.2994545e-01
 -1.0279450e-03
 -5.1773861e-02
 -8.6291268e-02
 -2.0917933e-01
 -1.0445742e-03
 -3.4547061e-01
  6.6703912e-03
 -1.1769080e+00
  3.5434189e-01
 -4.9369731e-03
  4.0124223e-01
 -1.2043151e-01
 -5.1783567e-04
 -7.1315789e-03
 -5.8715820e-01
 -7.5526960e-04
 -5.6101650e-01
  3.4373908e-03
 -2.6023713e-01
 -3.9174345e-01
 -1.3028324e-03
 -5.4783929e-02
  4.2229863e-03
 -8.7152904e-01
  1.0461346e-01
 -2.1016684e+00
 -6.5485662e-01
 -6.5333623e-01
 -5.7900870e-01
 -5.1142452e-03
 -2.3266575e-03
 -6.7858645e-03
  4.2077829e-03
 -4.0261634e-03
  8.1742904e-04
  2.8761652e-01
 -3.2411304e-03
  3.3275678e-04
 -3.9604199e-04
 -1.8340505e-03
  6.4377996e-06
 -1.6043322e-03
  2.3693817e-03
  9.6500145e-05
 -2.5047949e-02
  2.1308293e-03
 -4.3383040e-03
  3.4521576e-03
 -1.2991065e-04
 -4.8724691e-05
  4.4159587e-02
  1.0506058e-03
  2.0701425e-01
 -2.2336217e-02
 -2.8094789e-01
  2.2668215e-03
 -1.7353327e-03
 -5.6315545e-04
  3.7883318e-03
  7.0271158e-04
  1.3260022e-03
  5.8698924e-03
 -4.1151134e-04
  1.6977090e-03
 -4.5436662e-01
 -1.2342700e+00
 -1.9126089e-03
  1.2832636e-03
  2.5193624e-03
 -3.0934569e-04
  1.4082139e-04
  4.5019058e-03
 -1.9323100e-04
  1.2475401e-03
  5.3656148e-04
  7.4751652e-04
 -1.6188010e-03
 -2.8041091e-03
  4.3510208e-03
  4.2472163e-04
  2.3846556e-03
 -2.6288317e-04
 -4.8213694e-03
 -9.9254493e-03
 -5.6947229e-05
  2.4878194e-03
 -1.0008743e-03
  5.5208080e-03
 -1.1921394e+00
  3.7805096e-04
  7.2118737e-02
 -1.8301260e-03
  1.6174137e-03
  5.2635412e-04
  8.6964486e-04
  1.6244298e-03
 -2.2819031e-04
  5.0750485e-04
 -1.2953019e-04
 -3.5525034e-05
  8.8918034e-04
 -2.0742722e-02
  8.1739714e-03
 -9.5598145e-05
 -2.0968122e-04
  1.0806426e-03
  3.1871532e-05
 -4.8455164e-02
  1.2209729e-04
  1.2448396e-03
  7.4625399e-04
 -1.7446210e-04
  1.7001239e-03
 -7.8127801e-02
 -1.1661691e-03
 -2.6984510e-01
  1.6881308e-02
  3.2376462e-01
  2.1329254e-03
  2.8816166e-03
 -7.8552001e-04
  6.3803764e-03
  2.3449134e-04
  4.1970583e-03
 -2.6943930e-03
  3.5473201e-04
  3.1152354e-03
  1.1124299e+00
  2.7389267e-01
 -1.2521846e-03
  1.1707095e-02
 -8.5568021e-04
 -1.9328608e-03
  4.1825427e-03
 -3.5991761e-04
 -2.1903503e-03
  3.8871639e-03
  1.4020204e-04
 -1.9056738e-03
 -1.4852582e-03
 -2.5186606e-03
  2.2925425e-01
  2.6182367e-03
 -1.1441762e-03
 -3.3549252e-01
 -4.9114588e-04
 -3.5664472e-03
  2.2430089e-03
 -1.4306640e-03
 -2.3397019e-03
 -3.1281434e-02
 -2.2462849e-03
 -3.8638132e-04
  3.1755690e-02
  1.7403963e-03
 -1.1088927e-03
 -4.7619129e-03
  2.0099380e-03
  2.3778572e-03
 -3.8569130e-04
  1.1278668e-03
  2.9207191e-03
  1.5923724e-04
  1.5459943e-03
  2.2758956e-03
  1.6070928e-02
  1.7101415e-04
  1.5424970e-04
  2.7176045e-04
  4.1151920e-04
  5.3749501e-04
  4.2908770e-04
 -2.1206876e-03
 -4.6190570e-04
  2.6557740e-04
 -6.3806481e-04
 -2.2038138e-01
 -6.4215972e-04
 -5.6235003e-01
  1.3879708e-02
  1.2729938e-01
  2.2456506e-01
 -7.7179552e-04
 -9.9992467e-05
  5.3861539e-05
 -1.2747988e-03
 -3.2562849e-03
 -4.5281919e-03
  1.4391553e-03
 -1.3278181e-03
 -1.8232162e-03
  5.4661982e-04
  1.3370061e-03
  2.8187741e-04
 -3.2445794e-04
 -4.1507301e-04
 -6.6883746e-04
 -4.8193091e-04
 -1.1993358e-04
  1.1790260e-03
 -5.0458885e-03
  1.4079892e-03
 -2.4799379e-03
 -2.2886950e-03
 -4.1962862e-03
  1.8117495e-04
 -2.1135292e-03
  9.1059547e-04
  9.9232397e-04
  8.4518344e-04
  3.6804989e-01
 -3.0896496e-03
  5.0666672e-04
 -4.5115819e-05
 -7.6707102e-02
  8.5210137e-04
 -5.2711107e-03
  1.5217918e+00
 -3.9680800e-03
 -3.6118040e-04
  2.1098716e-04
 -2.3601593e-03
 -2.4959887e-03
  1.7690623e-02
  1.8336028e-03
  9.3211146e-04
 -4.2407162e-04
  1.3735539e-03
 -3.8176010e-04
  1.8473720e-03
  8.7825218e-03
  1.6528768e-03
  2.1550003e-03
  9.8067883e-04
 -4.5601097e-03
  5.2088464e-04
 -3.6672137e-03
 -2.8277634e-04
  4.3111075e-05
 -4.3192264e-02
  1.5103887e-04
 -7.2251421e-01
  5.7081156e-03
  6.1790621e-01
  7.3310412e-02
  3.9595683e-04
 -6.3401222e-04
 -1.0945118e-03
  4.3403981e-03
 -1.4733397e-03
  1.7191562e-03
 -8.7115716e-04
 -2.4083422e-03
 -9.5517319e-03
  2.7482178e-02
  5.0496066e-04
 -3.9399876e-03
  3.2620128e-02
  1.6622604e-03
  3.2691064e-03
  2.3094853e-03
  1.6382611e-03
  7.3964492e-04
 -2.2303744e-03
  3.5788215e-04
 -1.2161141e-03
  5.2519222e-03
  2.7817307e-04
  1.8895759e-03
 -1.7966543e-03
 -3.0700718e-03
  4.5255380e-04
  8.2593615e-04
 -4.2547556e-03
  1.2098078e-04
  2.8582837e-03
 -7.4057966e-03
  4.1163623e-04
 -1.5237998e-03
 -2.9390282e-03
 -7.1882323e-04
  1.7646019e-03
 -6.3556239e-05
 -7.6701357e-03
 -7.3471403e-04
 -1.9642573e-03
  3.8234945e-03
  1.5914608e-04
  1.8628852e-03
 -1.1568292e-03
  3.0960958e-03
  5.2649011e-03
  1.9887018e-03
  3.4359295e-03
  2.8863555e-04
 -9.0344157e-04
 -1.2507633e-03
 -8.4587536e-04
 -5.2748964e-04
 -2.7600860e-03
 -2.5354163e-03
 -2.2265571e-03
  6.0676539e-01
  1.8314295e-02
  9.7113222e-01
 -1.8203929e-01
 -7.8778785e-01
 -2.8493926e-01
 -6.0252454e-03
  1.1136266e-03
  1.6044546e-03
 -2.0743740e-01
 -1.9814467e-02
 -4.1218493e-03
 -1.4882946e-01
 -6.0535714e-02
 -4.3399888e-03
 -7.6811167e-04
 -4.9027647e-03
  1.8452686e-03
  2.8407723e-03
  5.2904704e-04
  2.8995925e-01
 -1.4405637e-03
  6.4480987e-06
 -5.9424347e-04
  1.5733178e-03
 -2.0363682e-04
  2.6854340e-04
 -4.3082936e-03
  2.3771727e-03
 -7.0358193e-03
  8.7311893e-04
  4.2773026e-01
  5.1889666e-03
  1.0765520e-03
 -1.6882604e-03
  3.3281825e-03
 -2.4550685e-04
 -9.6764055e-04
  3.3249235e-01
  7.2423968e-04
  9.1360994e-02
  1.2877458e-03
  4.0813461e-03
 -2.9571617e-01
 -4.2399428e-05
  1.8718471e-04
  1.9875783e-03
 -9.2266966e-03
 -5.8885030e-03
  2.9342325e-05
 -3.8196566e-03
  2.2816083e-03
 -3.9360425e-03
 -2.8334954e-03
 -6.0607330e-04
 -4.3967837e-03
 -4.8807234e-04
  1.1343913e-03
 -2.1962433e-03
 -1.4493259e-04
 -1.8735872e-04
 -8.3929527e-01
 -2.0164442e-01
 -2.0325000e+00
 -3.5670933e-01
  1.5358614e+00
 -1.8846989e+00
 -4.6070030e-01
 -1.4797773e+00
 -1.9599522e+00
  7.7733499e-01
  1.7008126e-02
 -2.5829011e-01
 -3.6960262e-01
  4.2642561e-01
 -1.1734525e+00
  2.4566230e-01
 -7.6582648e-02
 -1.1509111e+00
 -9.9633527e-01
  1.2239232e-02
 -1.2737141e+00
  3.8649788e-01
  6.0358632e-01
  4.5494780e-01
 -4.6451014e-01
 -5.7956821e-01
 -1.1712241e+00
  2.0875190e-01
 -9.8738563e-04
 -1.2460707e+00
  4.0747756e-01
  6.3907629e-01
  4.3488979e-01
  1.4685026e-01
 -9.5317531e-01
 -6.5700090e-01
 -9.9155190e-04
  2.7980231e-02
 -2.0971271e-01
 -5.0443470e-02
 -1.5945677e+00
  1.5086913e+00
  6.0701847e-01
 -1.8939176e-01
  5.6342191e-01
 -3.9728894e-03
  8.2158088e-04
  2.6384649e-01
  1.2191768e-03
  2.1617813e-01
  8.0779704e-05
  1.2242518e-01
  6.1743200e-02
  5.7336316e-03
 -4.0527008e-04
 -1.3930547e-03
 -2.1877225e-01
 -2.5385179e-04
  1.0701697e-02
 -1.7604481e-03
 -1.2305346e-03
 -2.9433309e-03
 -7.2219991e-03
 -1.4065410e-03
 -8.7544078e-04
  3.3803463e-01
 -3.9220785e-04
  5.0946146e-01
 -1.1820663e-01
 -1.0338068e-02
 -3.0694096e-03
 -1.1937877e-03
 -9.6138410e-04
 -1.9468558e-03
 -8.2113259e-02
  1.2522545e-03
  1.5682077e-02
 -1.2170210e-03
  7.9728226e-04
 -1.3610088e+00
 -2.9533147e-03
 -3.6796615e-03
  1.4423329e-03
 -2.1776967e-03
  8.1806742e-05
 -3.7628727e-03
 -9.7473932e-04
 -3.1623957e-04
  7.7793361e-03
 -1.9454907e-03
 -2.1358104e-03
 -1.8647044e-03
 -3.6090531e-04
 -1.1424363e-04
 -3.1139369e-03
  3.9475402e-03
  8.4888923e-04
 -4.1154674e-03
 -1.6059999e-03
  6.2047108e-03
  2.7472476e-04
 -1.1445390e-01
  1.8111772e-03
  1.3332686e-01
  5.8534052e-03
  4.9889623e-03
  9.7470597e-04
  4.4777542e-02
  1.8544373e-03
 -1.5989196e-03
 -1.9709808e-03
  2.1655778e-03
  8.3346182e-04
  3.1087541e-03
 -1.2517911e-04
  3.0399792e-04
 -2.9492046e-04
  9.3968253e-04
  6.4390460e-03
 -9.1950642e-05
  3.4863761e-04
  1.8311801e-04
  6.0716593e-03
  5.0855316e-02
  3.4865932e-04
 -5.3479348e-04
 -7.8457105e-04
 -1.3453788e-03
 -1.9675856e+00
 -1.5112719e-03
 -6.8776709e-01
  1.1899080e-01
 -7.2755486e-01
  4.9836744e-02
  1.6251741e-02
 -1.8138934e-03
 -8.9448076e-01
 -6.5406191e-04
 -4.8769372e-05
  2.0995192e-01
  5.7342495e-03
 -6.0623360e-04
  9.2699029e-04
  1.8649769e-03
 -1.1864368e-01
  1.0947792e-03
  1.6694861e-03
 -3.4335500e-03
 -1.8032195e-04
 -6.8359682e-04
  3.9109212e-04
 -1.6791992e-05
 -3.8853800e-04
  5.3589500e-04
  4.6361950e-03
  6.5946621e-03
  4.5492472e-03
  7.4267091e-04
  1.2901907e-04
 -2.4691099e-01
 -2.1338603e-03
  2.3649754e-03
  1.9908954e-01
  5.9861923e-04
  8.2173414e-04
  2.6050541e-01
 -1.3357119e-01
 -1.6505085e-01
 -9.3623154e-02
  2.0256003e-03
  3.3297556e-04
  1.3383738e-04
 -2.9038734e-04
 -5.6132148e-03
 -9.9801249e-04
 -2.6356939e-02
  3.6920662e-04
 -2.1241722e-03
  7.3683978e-04
  1.8232246e-03
  4.6094556e-04
  4.3878024e-03
  1.4428341e-01
  1.2767066e-03
  2.2490320e-04
 -5.7991699e-04
  3.5867005e-04
  8.4053834e-05
  6.4356388e-03
 -9.0840384e-03
  6.9846292e-03
  4.6321589e-01
  2.4370513e+00
 -3.8115233e-02
  1.8054336e-02
  8.4927961e-02
  4.7605343e-02
 -9.5148565e-04
 -1.4004249e-03
 -4.7015203e-03
  1.3919505e-03
  4.9326714e-04
  1.0921346e-02
  2.1365597e-03
 -5.4915814e-04
 -1.8052609e-03
  1.8202795e-03
 -8.6379657e-04
  3.0199376e-01
  4.8084458e-04
 -1.7667257e-03
  5.4243362e-01
 -3.4245993e-03
 -2.7848242e-03
  8.9044846e-04
 -1.7954170e-03
 -1.5339921e-03
  4.8088647e-02
  2.8073709e-03
 -8.1324205e-03
  4.1428602e-01
 -8.6819297e-03
  8.2965000e-03
  1.1238762e-03
 -4.8578272e-04
  4.3563743e-04
 -3.1687869e-03
 -6.2826328e-04
 -1.1178886e-03
 -1.6821799e-04
 -5.5849355e-02
  3.5050893e-04
 -8.9635554e-04
  1.0480768e-03
 -6.0080871e-04
  1.5813326e-03
 -1.2156586e-04
 -7.7153882e-04
  1.0067110e-04
 -1.6491169e-03
 -7.0392668e-02
 -2.5613126e-03
 -1.3114704e-02
  1.4377909e-03
  1.0155614e-02
  9.1122690e-04
 -4.6984074e-04
 -7.1587926e-04
  2.6696855e-05
 -2.1719153e-04
 -8.7480719e-04
  2.2125314e-03
 -1.2458131e-03
 -5.5685238e-04
 -9.2659958e-02
  3.0530035e-04
  5.2216202e-01
 -9.5992975e-02
 -2.9099483e-02
 -7.3891564e-04
  8.9394140e-05
  5.3149794e-04
  1.3700039e-04
  2.7530054e-03
  9.6926658e-04
  6.7354580e-03
  5.8037946e-05
  2.8828220e-04
  1.8006058e-03
 -1.0168771e-03
  2.5771768e-03
  2.5599017e-03
  1.7831461e-03
  9.7751664e-04
  4.5502099e-04
 -2.3461545e-03
  3.3079123e-03
 -1.1582558e-04
 -1.6583196e-03
  2.8117625e-03
 -3.5182065e-03
  3.5961564e-03
 -4.9828610e-04
 -1.3063215e-02
 -1.4484025e-03
  2.3783556e-04
 -1.5005980e-01
 -1.8738348e-05
 -1.1741387e-03
 -4.3460065e-03
 -9.8670297e-04
 -9.3086099e-04
 -8.5798500e-05
  1.5491258e-03
 -1.7483506e-03
 -3.9601023e-03
  3.2315732e-03
  1.4949080e-03
 -9.7094155e-05
 -3.6077637e-03
  4.6186917e-04
  8.5382217e-01
 -2.8489850e-04
  4.8634928e-04
  3.4138355e-03
 -3.1106509e-03
  9.1255835e-04
  3.7916410e-03
  2.7710263e-04
 -2.5185449e-03
 -1.4006177e-05
  9.7589776e-02
  3.5843651e-03
 -5.6189881e-04
  1.7061561e-03
 -3.2083236e-03
 -1.1637298e-03
 -2.1056784e-03
  2.6638135e-03
 -8.9200895e-04
  4.6034926e-03
  3.2897013e-01
  3.9760303e-03
  3.1364283e-03
 -3.9405068e-03
  4.3799081e-03
 -6.5258157e-04
 -1.1858211e-03
 -3.5818007e-03
 -7.5111265e-04
 -2.7493972e-03
  1.7267335e-03
 -2.1136610e-03
  1.6531416e-03
  2.0358213e-03
  6.5165351e-04
 -3.4630720e-03
 -6.1238854e-05
 -5.6731183e-04
 -2.0445164e-03
  7.6508196e-04
  9.0559456e-04
 -1.8786705e-03
  1.1912143e-03
 -2.2121960e-04
  1.7319869e-03
 -1.1295219e-03
 -4.7352503e-04
  2.0893116e-03
  2.4558704e-03
  6.4139528e-04
  9.2086202e-04
  7.7473377e-03
  1.0123437e-04
 -1.2419150e-03
 -9.7280310e-04
  8.1391507e-01
  2.0348176e-03
  3.6126247e-03
 -2.5152375e-03
  1.8891172e-03
  2.0832815e-03
 -4.2709648e-03
  6.8608561e-04
 -7.7100605e-04
 -3.6504987e-04
 -5.0546305e-04
  2.1263456e-03
  9.8555870e-03
 -5.0284696e-04
  4.0251124e-03
  9.1638172e-04
  4.0947154e-05
  1.0122489e-03
  1.7434991e-03
  1.5969009e-03
  4.5916383e-04
  6.2926416e-04
  5.2729519e-03
  6.6927105e-01
 -2.9730445e-01
  2.8149636e-05
 -2.5721794e-01
  5.3246312e-02
 -4.2771000e-01
  1.1241711e-04
  2.0544620e-02
 -3.7058879e-04
 -1.1447833e-03
  8.9060375e-04
 -2.2539336e-03
 -5.0691944e-03
  7.0375041e-03
 -1.0623357e-02
  6.4327201e-04
 -1.0511259e-03
  3.9756212e-02
 -1.5630334e-03
  3.4069682e-03
  3.7385782e-04
  3.1929770e-03
  6.6982708e-03
 -3.7650960e-03
  1.3129500e-03
  5.8147294e-04
 -8.6844264e-04
  1.9142785e+00
 -3.1891593e-04
 -3.2036784e+00
  1.1057347e-03
 -3.8352830e-04
  1.0386909e-03
  4.7774501e-03
  1.2676973e-03
 -1.6389932e-03
 -6.1923852e-03
  1.8691712e-03
 -7.4502185e-04
  3.0269793e-03
  9.3968922e-01
 -8.4050442e-04
  1.3157421e-03
 -3.5524135e-04
  5.8010552e-04
 -2.2540414e-03
  4.7328367e-04
 -1.2481970e-03
  8.1295753e-03
  9.5227076e-04
 -1.7058509e-03
 -3.4950397e-03
  2.0287095e-03
  6.1703578e-04
  1.7003829e-05
  1.9144299e-04
  4.0028337e-03
  1.4080881e-03
 -2.5015371e-03
  7.8330860e-03
 -6.4314547e-04
 -1.3348933e-03
  6.3176522e-06
  1.3422798e-03
  3.3153294e-04
 -3.0936551e-04
  3.9571468e-02
 -4.5271437e-03
 -1.1901642e-01
  4.5378963e-03
 -1.2384967e-03
  3.0068357e-03
  2.2120576e-03
 -1.7991270e-03
 -1.4620300e-04
  5.0861440e-03
  1.3396346e-03
 -1.4950897e-03
  9.0157898e-04
  1.3171045e+00
 -2.1539840e-03
  4.0899427e-03
  1.2654986e-03
  3.8332718e-03
  6.3588501e-05
 -8.9258555e-04
 -8.1827026e-04
  6.3730135e-06
 -6.1185245e-04
  2.7190892e-03
  4.3945471e-03
  1.8840585e-03
  2.9877874e-01
  1.0451447e-02
 -6.1999131e-06
 -5.7624246e-04
 -4.3805232e-03
  2.6010652e-03
  1.9049863e-03
 -5.3715850e-03
  8.9992833e-04
  7.7235262e-04
  7.9779252e-03
  3.4989865e-04
 -2.8319794e-04
 -8.7150524e-04
  7.0140713e-01
 -1.9705514e-03
 -1.3610971e-03
  1.0411512e-03
  6.1022034e-03
 -1.9342898e-03
 -1.2799114e-02
 -1.5040516e-03
  9.9995604e-04
  4.6356046e-03
  6.9981337e-02
 -2.2308114e-03
 -5.3135655e-04
  1.9369524e-03
 -2.0082653e-04
 -1.3960440e-03
 -1.3379531e-03
  1.7777646e-04
 -7.3860289e-04
  1.4360739e-04
 -2.8299210e-03
  3.0622888e-01
 -7.8282662e-02
 -1.3826851e+00
 -2.3176570e-01
 -6.1011338e-01
 -2.2524486e-01
  2.6974421e-02
  5.9991708e-04
 -2.6993828e-03
 -2.3203176e-04
 -2.1838313e-03
  3.4293432e-03
  8.4540853e-04
  6.3517864e-04
  1.5410822e-03
  7.4266456e-04
  1.6280510e-04
 -8.3455880e-04
  3.4256020e-04
  7.7750237e-04
 -5.4903799e-01
  4.1684257e-03
  1.4374634e-02
  2.8518075e-03
  7.6622685e-04
  6.6729255e-05
  7.3219198e-05
  2.6992715e-03
  1.8596370e-03
  1.5375975e+00
  4.2933408e-02
 -1.6822736e-03
 -3.4939682e-03
  3.7335925e-04
  4.6264762e-03
 -8.8435486e-03
 -1.2911981e-01
  9.7474605e-03
  2.8940386e-01
 -8.0043252e-04
  3.5781744e-01
 -1.9481835e-03
 -8.1486709e-04
 -7.9917252e-02
  8.2384344e-05
  8.7607717e-03
  1.0084232e-02
  4.9564950e-03
 -2.0739613e-03
  2.9576686e-03
  2.5517836e-03
  1.0766160e-02
 -1.3825477e-03
  4.1835373e-03
 -1.7972909e-03
  1.7477683e-04
  1.2192195e-03
 -6.0404018e-05
  5.8413460e-03
  3.9552391e-04
 -6.5563035e-01
  4.9511751e-04
  6.5775181e-04
  7.0618041e-02
 -4.4389640e-04
  3.3198455e-01
 -3.3773765e-02
 -1.8491384e-01
 -1.0907097e-02
 -4.7552977e-03
  2.3991202e-03
  3.5880413e-04
 -3.5330532e-03
  7.6116092e-05
  2.9100056e-04
 -1.1639068e-07
  2.3540461e-03
  1.9619910e-03
  1.0686086e-03
 -1.9811284e-04
  8.5632913e-03
  4.3776733e-04
 -1.0714404e-04
 -1.2397332e-01
  1.4551173e-04
 -5.2287255e-04
  4.2796549e-03
  2.7995359e-03
 -1.9696078e-03
 -5.9184682e-04
  9.6632612e-05
  9.4469963e-03
  1.0119062e-03
  1.0032039e-03
  2.5451151e-03
 -1.4120127e-03
 -2.5945150e-03
  2.7366423e-03
  1.3600485e-03
  1.5089057e-03
  2.5143763e-03
 -1.2224562e-03
  5.4702430e-04
  5.1522738e-04
 -3.7238605e-03
  7.7705906e-04
  3.0472528e-04
  7.9991139e-04
 -9.9452423e-05
  4.1864449e-03
  4.6951263e-03
  7.2195311e-04
 -2.1210585e-03
 -1.3733581e-03
  8.7238807e-04
 -8.3913014e-04
 -3.1185416e-03
  1.1005451e-03
  1.2362570e-02
  2.7661885e-03
 -5.0021592e-03
 -1.7154642e-03
 -8.0914854e-04
  8.5187040e-02
  1.1565809e+00
 -3.4350187e-01
  1.2850089e+00
 -5.2032274e-01
  6.8882537e-01
 -1.1087959e+00
 -1.7257614e+00
 -1.0503185e+00
 -2.1038133e-01
  1.9170745e-01
  1.0006620e-01
 -2.8499791e-01
 -7.1036462e-05
  1.3228438e+00
  8.4564282e-04
  7.4311578e-01
 -1.5855344e-02
 -1.3774863e-01
 -7.8996652e-01
  2.6406760e-03
 -9.0555751e-01
  8.7194718e-02
 -2.5465035e-01
 -8.3753914e-03
  2.3307922e-01
 -1.0971766e-03
 -2.1699810e-01
  9.5183305e-02
 -3.7368574e+00
 -4.7212064e-01
 -3.4056409e-04
  6.6511267e-01
  2.3747274e-01
 -1.0749546e-01
 -6.5350902e-01
 -4.2513139e-03
  8.6050391e-01
  6.1752214e-03
 -7.9240340e-01
 -2.4436279e-03
 -4.9611914e-01
 -2.2798833e-01
 -3.1065992e-01
 -4.2168900e-01
  9.4062269e-02
 -2.0758135e-02
 -2.2499263e-03
  6.1789535e-02
 -1.7861149e-03
  1.6752976e-01
  2.2293809e-03
  3.3629220e-02
 -3.4612887e-05
  4.7106035e-03
  2.6172129e-04
  2.2186446e-03
 -7.1252314e-03
  1.1287946e-03
 -4.0363264e-01
  6.9612227e-03
  6.4984913e-04
 -2.3909353e-03
  3.4425877e-05
  5.0859703e-03
 -1.0922216e-04
  2.0684950e+00
  1.0234734e-01
  2.6038880e+00
  5.1448983e-01
  1.0705195e-01
  1.4164813e+00
  7.6424104e-01
 -1.1478706e-02
 -3.1548596e-04
  1.6383277e-01
 -8.5129449e-04
 -1.2371656e-01
  2.3533078e-04
 -1.3732472e-02
 -1.9772081e-03
  8.4538100e-04
  5.4882135e-02
 -1.3635111e+00
  2.4854323e-01
 -4.1736639e-04
  1.6805737e-01
 -2.4345596e-03
  1.6360518e-02
  3.3399917e-04
  3.2431297e-02
  2.3843269e+00
  3.8497669e-03
  1.4396152e-01
  4.4779931e-04
 -1.9940792e-02
 -1.3978536e-01
 -1.4190089e-04
  4.0243175e-02
  8.2215539e-04
  3.0566524e-03
  5.8845046e-04
 -2.4285769e+00
  6.8609621e-03
 -1.0005202e+00
 -5.7238273e-02
 -5.2684903e-01
  2.5086871e-01
 -2.6366946e-03
 -2.7934022e-03
  2.2396625e-03
 -3.3961973e-04
 -7.0164585e-04
 -2.9980426e-03
  1.6297607e-01
  1.5747562e-04
 -1.7956127e-03
  1.4212692e-01
 -4.1251868e-02
 -2.9546269e-03
 -8.9970988e-04
  3.1593197e-04
  1.3581051e-03
 -4.0604263e-03
 -4.4624432e-04
 -7.7714809e-05
  1.9094711e-03
  5.5009970e-03
  1.5833278e-01
 -2.4764481e+00
  5.9371197e-04
  7.9228550e-01
  9.8246105e-02
  2.0026300e-02
  1.5981224e+00
  2.4913340e-03
 -2.8589055e-01
  4.2591994e-03
  6.6582894e-01
  5.2538037e-01
 -6.2869740e-01
  4.6236789e-01
  8.9888746e-01
 -4.5105143e-04
  2.5154340e-01
  6.6315331e-03
  5.0244213e-04
  2.5678274e-01
 -3.0387655e-02
  5.2714874e-03
 -1.2929042e-02
  3.7189069e-01
  2.3849173e-03
  3.1067831e-03
 -7.0272190e-03
  5.5664009e-04
  2.7402561e-02
 -1.7676005e-03
 -1.0487559e+00
 -2.9908988e-04
 -4.5394700e-02
  5.5861572e-05
  1.3313761e-03
 -3.8150811e-04
  1.6046158e-04
  2.4833462e-01
  1.2490422e-01
 -9.7948724e-01
  2.3741448e-02
 -2.2666314e-01
  6.6769873e-03
  5.1043578e-03
 -1.2771792e-03
  2.8022269e-03
  4.4727782e-03
  1.4286055e-03
  2.9633829e-04
  5.2063334e-01
 -9.5613115e-04
 -1.6241721e-03
 -1.3595450e-04
  8.0454466e-04
 -4.1236114e-03
  1.1339859e-04
 -9.9750294e-04
 -1.1129549e-03
 -2.5453600e-03
  3.3490055e-03
  8.0991397e-04
 -1.6730959e-03
 -3.9865653e-04
  4.6256123e-04
  1.0790854e+00
  2.2223515e-03
  7.3912168e-01
 -7.6744312e-01
 -4.4485274e-01
 -3.4516069e-01
 -1.8787096e-01
 -6.9355508e-03
 -1.0673049e-02
 -4.9244552e-03
 -9.1083534e-02
 -1.0367724e-04
 -1.1638789e-01
 -7.1543227e-03
 -4.0784694e-04
 -3.3093667e-01
  9.1666717e-04
  2.4543388e-03
  2.4237526e-03
  4.8742760e-03
  1.9696779e-03
  2.6784767e-03
 -1.2632365e-03
  7.5318194e-03
  8.4535335e-04
  8.1728020e-04
  5.2745868e-03
 -6.1920327e-03
  2.8694642e-04
  1.5918629e-03
 -2.9416806e-01
  1.7761096e-01
 -4.7879266e-03
 -6.2796311e-04
  8.2223682e-04
 -2.1052579e-03
 -1.1214336e-03
 -4.7946209e-03
  7.4322824e-03
  1.2691087e-03
  1.0917870e-01
  8.9247985e-04
 -1.9099573e-03
 -1.3722628e-04
  9.3736709e-04
 -1.8530580e-03
 -5.0655828e-04
  1.5699512e-03
 -1.0036285e-03
  3.4100243e-03
  3.5105101e-03
  2.0058437e-03
  1.6043081e-03
  2.8211665e-05
 -9.7389356e-04
 -2.1495879e+00
  2.8974589e-04
 -3.5236338e-03
  7.1989107e-01
 -6.0317235e-04
 -2.2207424e-03
  7.3205233e-03
  1.9420739e-03
  2.7633297e-01
 -9.0200809e-04
  3.5785422e-01
 -5.8410749e-02
 -6.0793912e-01
 -2.5871819e-01
 -2.2098472e-02
 -2.1467509e-03
  1.4214237e-04
 -8.4279384e-03
  4.4480693e-03
  3.7972303e-03
  3.2591555e-01
 -3.9880723e-04
 -2.3515873e-04
  1.6199346e-03
 -9.4591331e-04
 -1.4989099e-03
 -2.8428207e-03
  3.7399025e-03
 -1.0276140e-03
  6.1886269e-04
 -1.1695373e-03
  9.9357183e-04
 -2.6559462e-03
  3.2492040e-04
  5.5951631e-04
 -9.1125339e-04
  3.0381870e-04
 -2.9043769e-04
 -4.3285193e-04
  4.3311037e-02
 -5.5952943e-03
 -9.3320225e-05
 -3.2438517e-03
  2.3310981e-03
 -2.3361433e-03
 -1.2857763e-03
  2.5001821e-01
  4.9335090e-04
  1.4463625e-02
 -1.3614189e-03
 -1.3842342e-03
 -7.9329091e-04
 -8.6871803e-02
  4.1824114e-03
 -1.5173204e-01
 -6.2153114e-05
 -7.4151816e-04
 -3.6207321e-03
 -9.3537383e-03
  8.6286763e-04
 -3.5120063e-03
  5.8353060e-05
 -1.5354933e-02
 -4.3735199e-04
  1.8479860e-04
  8.3431997e-04
  4.9059731e-03
 -1.5680603e-03
  3.1355696e-03
 -1.4629612e-02
 -2.0979937e-02
  8.7228018e-01
  1.0436714e-01
  7.0036173e-01
 -1.5805644e-01
 -4.9850887e-01
 -1.1653669e+00
 -5.1226988e-03
  8.5555771e-03
 -8.3193299e-04
 -1.2225177e-01
 -2.0409039e-01
  4.4970155e-01
 -3.1152549e-01
 -4.5366558e-01
 -4.8873684e-04
 -1.9423775e-02
 -1.7994556e-03
 -3.1130069e-03
 -1.7311455e-03
  8.3975513e-03
 -1.0660907e-04
  8.0152921e-02
 -7.9017317e-01
 -3.5763085e-03
  2.7011093e-04
  3.2149439e-03
  7.1221897e-05
  6.1203615e-04
 -5.2289855e-05
  1.2165902e+00
  4.4803177e-03
  6.1319929e-01
 -6.3189220e-01
 -1.0071245e-03
  4.8691230e-03
 -3.6887629e-03
 -6.4754975e-04
  3.4348683e-03
  5.5488396e-01
  5.2354939e-04
  5.4452109e-01
  2.9155298e-03
 -6.6876435e-04
 -8.7364472e-04
 -9.6969033e-04
 -1.2033660e-03
 -3.8379349e-04
 -2.4009820e-03
  1.9200920e-03
  4.7412906e-03
 -1.5611689e-03
 -6.6572803e-01
  1.6791528e-03
 -1.3469650e-03
  5.0423626e-04
 -1.0141131e-02
  1.0823878e-04
  1.4399606e-03
  1.1372921e-04
 -8.5571670e-04
 -2.5192078e-03
  4.5028262e-02
  9.8979704e-02
 -1.2091894e+00
  8.4873140e-01
  2.0535624e+00
 -7.0889749e-02
 -2.1708980e-01
 -1.4229388e-03
  1.4755325e+00
 -1.9297396e-01
 -7.6306732e-03
  5.4081911e-01
 -9.7016639e-01
 -1.1425138e-04
  1.0175431e-01
  2.5087494e-02
  3.7876815e-01
  8.6301321e-01
  5.2800608e-01
 -9.0795957e-02
  6.0879678e-01
 -5.4684031e-01
  1.7135420e+00
 -4.5162713e-05
  2.5728798e-01
  3.4457080e+00
  8.8007390e-01
  2.8252143e-03
 -1.5560477e-03
  8.5049593e-01
 -8.5273170e-04
  1.9792279e+00
  6.5648928e-04
  4.9816576e-01
  1.0934976e+00
  3.7223727e-01
  2.5666054e-02
  6.1896525e-02
  4.9585763e-01
 -5.3402880e-04
  4.9828324e-01
 -3.9055863e-01
  3.7538758e-01
  1.5234715e+00
  2.0817709e+00
 -5.6400528e-05
 -2.0416494e-04
 -6.2074326e-03
 -4.5591826e-03
  7.5192883e-04
  1.6229647e-03
 -7.6234758e-02
 -6.3453708e-04
 -1.3984517e-02
 -2.1394833e-03
 -3.9468794e-03
  5.2798106e-03
 -9.4058271e-04
 -4.4895144e-04
  6.3271564e-01
  3.5919945e-04
  2.0937356e-03
  3.4532606e-04
  1.7834964e-04
  1.6699152e-03
 -2.9227665e-01
  1.6504929e-03
 -7.3131782e-01
  5.5044085e-02
  6.4569944e-01
  5.7961863e-02
  3.1888052e-03
 -4.9772265e-04
  3.0952084e-03
  1.7614710e-05
  7.6875286e-03
  8.4709417e-04
  2.0460989e-03
  6.5186452e-03
  4.0977250e-04
  1.1819415e-03
 -1.7796889e-03
 -4.4947043e-03
  1.1014268e-03
  6.4830424e-04
  9.1191544e-04
 -2.6809138e-03
  3.2552294e-03
 -2.5687721e-03
  5.1151197e-03
  3.2604154e-04
 -4.1191874e-04
  1.4664229e-03
 -1.7875527e-03
  1.1056708e-03
 -7.7912875e-04
 -3.5900526e-02
 -1.1752953e-03
  7.2412891e-05
  4.2891339e-04
 -5.3434417e-04
  1.5317301e-03
 -8.2928542e-04
 -2.0911987e-03
 -8.6543998e-03
 -5.9571087e-02
  4.2583304e-04
  1.8660103e-04
  8.7342014e-05
  1.2062135e-03
 -1.2090074e-04
 -5.4653717e-04
  3.1502256e-03
  1.3993637e-01
  2.2954389e-01
  7.2188941e-03
 -4.0634134e-04
 -5.6212819e-03
  4.4137938e-03
 -2.4109194e-03
  2.2903963e-03
 -3.6604567e-03
 -7.1609761e-03
  4.9119978e-03
 -6.3869584e-04
  5.4329482e-04
  6.1686276e-03
 -9.3003555e-04
  6.1172843e-01
  2.0472286e-04
  6.3641417e-01
 -2.2532260e-01
 -5.7178324e-01
 -1.3819307e-01
 -4.0390431e-03
  6.6327333e-04
  4.0007248e-03
 -4.4247163e-03
 -5.5700913e-04
  1.1343678e-04
 -3.6594052e-02
 -1.0963534e-03
 -3.1123069e-04
 -4.2451080e-04
 -7.6296912e-03
 -9.2032057e-04
  1.9825273e-03
  2.9208534e-03
  1.6971794e-04
  1.1786912e-01
  1.9517303e-03
  3.7755241e-04
 -1.6088312e-03
  5.4152007e-03
  2.3248266e-04
 -2.2095811e-02
 -6.4781210e-03
 -4.1653002e-05
  8.3450839e-04
  9.2076017e-03
  3.9753919e-03
 -9.6186064e-04
 -1.4537033e-03
 -6.2548899e-04
 -4.4251541e-03
  1.5397409e-03
  1.9969946e-01
 -7.8361857e-01
  8.3030708e-02
 -1.6833346e-05
  6.6924421e-04
 -1.3169906e-01
  1.0169422e-03
  5.2255071e-03
 -1.2983041e-03
  9.4193046e-04
  1.8312334e-03
 -2.5591312e-03
 -2.4069361e-03
 -2.5709628e-04
  5.1520584e-04
 -3.4512195e-03
 -2.0355867e-05
 -3.2061343e-03
 -4.4836705e-03
 -2.4832631e-03
  1.2801588e-03
 -6.4614601e-04
 -2.0886892e-04
 -8.4506196e-04
  8.1120554e-04
  5.1232529e-01
  7.2823412e-04
  3.5659093e-01
 -2.3013648e-02
 -1.4366134e-01
 -1.1141689e-03
 -2.7747178e-01
  4.8003378e-03
 -3.6542644e-03
 -1.6224924e-03
  6.5829176e-03
  1.1041641e-03
 -8.5130706e-03
 -1.4459747e-03
 -1.7182305e-03
  2.3216864e-03
  2.6267432e-04
 -2.2019623e-03
  3.0068844e-03
  3.0373523e-03
 -3.5974865e-03
 -7.1057054e-04
 -1.3683045e-04
  3.1790722e-04
 -1.3356358e-03
 -1.0105841e-03
 -7.8605884e-04
 -4.9136304e-03
  2.4079036e-03
  4.7697094e-03
 -1.7494734e-04
  6.7094022e-01
 -1.1613038e-03
 -7.7669611e-05
  2.4278705e-05
  3.0889686e-03
 -3.1013536e-05
  2.9402003e-03
  4.2847361e-02
  6.6836916e-02
  9.7169010e-03
  4.0587755e-03
 -1.6832152e-04
  1.2124432e-03
  6.3356515e-03
 -4.3624174e-03
 -5.7900924e-04
 -1.3421203e-01
  3.7226553e-05
 -1.8203013e-04
 -2.1587149e-03
  3.5061635e-02
 -1.3509535e-03
  5.4939318e-04
  6.3766572e-03
 -4.7242647e-04
  4.6604956e-03
  7.5508637e-05
  3.5964447e-04
  1.5839285e-01
  6.1309163e-04
  2.4415753e-03
 -1.0556618e-02
  1.9223658e+00
  8.8601359e-05
  6.2526703e-01
 -2.2847122e-01
 -6.7926538e-01
 -2.2973815e-01
 -2.3697561e-03
  7.2981458e-04
  2.6119614e-04
 -1.2066906e-03
 -4.0129959e-04
  8.4663345e-04
 -1.0487270e-01
  3.0413075e-04
 -1.4458366e-03
 -3.8595838e-03
  9.6239289e-04
 -7.8240311e-04
 -1.9690972e-03
  1.0045310e-02
 -2.5571105e-01
  2.8406782e-02
 -1.6421768e-01
 -7.6820655e-04
 -1.8842624e-03
 -2.8178797e-04
 -5.4432772e-04
 -2.4369545e-03
  1.0234157e-03
 -6.0438830e-03
 -3.3787796e-03
  2.7152172e-01
 -1.0293521e-04
 -4.0857792e-02
  5.5675162e-03
 -3.6562481e-03
 -3.0697698e-03
 -1.7340148e-03
  1.7429973e-01
  7.3732510e-02
  2.6705021e-01
  5.1073072e-04
  9.2995452e-04
 -5.4843635e-03
 -4.1998370e-04
 -1.3304333e-03
 -8.0896751e-04
 -2.4821185e-05
 -3.7760215e-05
  6.1105252e-03
  4.2491262e-03
 -1.7642337e+00
  5.4660439e-03
 -5.2385963e-03
  5.5096857e-03
  2.2147291e-03
  5.4981705e-04
  1.7762412e-01
  3.4784698e-01
 -5.3140717e-03
  3.9593804e-05
  4.7227513e-04
  6.4824789e-04
 -1.4548422e-03
  1.1198993e-03
 -1.9798832e-01
  9.7329110e-05
  1.4444146e-01
  4.0873453e-02
 -1.3692377e-04
 -1.3947146e+00
  2.7575137e-04
  1.1447335e-03
 -1.1480266e-03
 -1.1998615e-03
 -8.7289774e-04
  8.6147877e-05
 -1.8051447e-03
  6.1084429e-04
 -2.5435814e-04
 -4.5436574e-03
  1.1039671e-03
  1.2692558e+00
  4.0034342e-01
 -8.9067133e-04
  3.6401260e-03
  2.7645667e-04
  2.5194779e-04
 -4.7139316e-03
  6.8708984e-03
 -3.1759685e-03
  2.8420342e-03
 -5.3509595e-03
  4.1137657e-05
  7.0454087e-04
  3.7051965e-03
  2.3762148e-03
  1.3333110e-03
  2.2413819e-03
  8.9221378e-04
 -7.7736964e-03
 -5.7401065e-02
 -5.8867089e-03
 -4.9987123e-03
 -5.8455765e-04
  3.2556325e-03
 -1.3497359e-03
  8.5948431e-04
  6.8994571e-04
  1.0362535e-04
 -1.8505954e-04
  6.5159245e-04
 -7.2452044e-03
  3.8108107e-04
 -3.8108736e-04
  1.2434793e-01
  1.2109567e-03
  9.7399391e-04
 -6.7264790e-04
  1.6150294e-02
 -8.9644062e-05
 -3.3458366e-04
 -1.8898763e-03
  3.8179278e-03
  2.2047684e-03
  8.2016690e-03
 -2.4552202e-01
  2.8164896e-01
 -5.2882671e-01
 -3.8784673e-03
  3.3539057e-01
 -2.5751328e-04
  4.1435468e-03
 -1.6914646e-03
  3.9988258e-01
  2.4925582e-03
  9.3252957e-04
 -1.2513211e-03
  5.0322665e-03
 -9.1040920e-04
  1.0400397e-03
  6.3730702e-03
 -1.4179073e-03
  8.1107148e-04
 -1.1180064e-03
  2.9520167e-03
  2.3427376e-05
 -1.2616237e-03
  6.4913009e-04
 -2.3347074e-03
 -4.5495033e-02
  1.8571358e-03
  1.8002405e-03
  6.4095971e-03
  5.0238166e-03
  2.1941380e-03
  1.4685274e-03
 -6.9596422e-01
  3.8139324e-04
  1.7580836e-03
  8.7388582e-04
 -5.5179164e-05
  1.1092884e-02
 -5.5269226e-03
 -2.3255320e-03
  8.9574729e-05
 -7.0598535e-03
 -6.9806919e-02
 -4.2133380e-04
  1.6524744e-01
 -1.7250821e-03
 -4.9444241e-04
  1.0298502e-03
  7.8018834e-03
 -2.0693738e-03
  2.5645976e-03
 -2.3172689e-03
  1.1456492e-03
  2.9644649e-03
  1.8448837e-04
  7.2199589e-04
 -1.7699607e-03
 -5.9769255e-01
 -1.5087251e-01
 -1.1360446e-03
 -1.1648288e-03
 -1.2219964e+00
 -7.6048408e-04
  1.3725025e-03
 -4.3235640e-03
  6.2050521e-01
 -3.6698648e-01
 -2.2810230e-01
  3.7947145e-01
 -2.3446297e-03
  5.0231107e-02
 -1.8990550e-03
 -1.5915700e-03
 -3.0040014e-01
  4.2631226e-03
 -2.1982631e-03
 -2.0457503e-04
  4.3653100e-04
 -8.1005070e-04
  1.3662301e-03
  6.1456036e-02
  5.0901175e-03
 -4.0647611e-03
 -2.4943434e-01
  1.6759727e-03
 -6.2085211e-04
 -9.7409427e-01
  6.0104084e-04
  7.4435137e-03
  1.3111503e-04
  2.0107022e-03
 -5.0200557e-05
 -3.3965660e-04
  1.5093961e-04
 -2.4374747e-03
 -1.1694693e-02
 -1.2481734e-03
  1.4404495e-03
  3.1635500e-03
  1.3697862e-03
 -1.4962056e-03
 -4.0817485e-04
  2.8557887e-03
  2.5357818e-03
 -1.1947654e-03
  7.6431868e-05
 -4.7723349e-04
  2.2182114e-05
  1.1970485e-03
 -1.4372351e-02
 -2.0453364e-03
 -2.3144523e-03
 -4.1786304e-01
 -9.0002746e-04
 -2.0249877e-03
 -2.2828258e-03
  2.5426212e-04
  3.2348495e-03
  9.5088326e-04
 -2.1985553e-03
 -1.5760268e-03
  2.8829915e-03
  2.8710235e-03
 -1.4524614e-02
  7.5189432e-04
 -7.8928214e-04
  1.4007848e-05
 -2.0646928e-01
 -2.3704633e-04
 -1.1676643e+00
  3.3576408e-01
  1.1031237e+00
  1.4703650e+00
  3.8145292e-03
 -7.6380908e-03
  1.4152051e-03
  5.2021768e-02
  4.3773957e-02
 -2.1427241e-01
  3.5090629e-02
  5.2208275e-02
 -5.3156086e-04
 -3.0748837e-03
  3.5036928e-03
  1.9502536e-03
  1.8335905e-02
 -5.6804083e-03
  4.0437051e-04
  2.1270362e-03
  3.9540739e-03
  5.2434430e-03
  1.1626440e-02
 -6.3829366e-03
 -2.4984211e-03
  1.5744766e-03
  1.6744525e-04
  2.8045417e-03
  4.9815485e-03
 -4.2359805e-01
 -7.9083175e-04
  8.9152134e-04
 -2.5267678e-03
 -1.0810002e-03
  1.4797479e-03
  5.9889507e-04
 -4.4426388e-01
 -7.6103501e-02
 -4.4284588e-01
  6.0978740e-01
  1.1667253e-03
 -3.9728605e-03
 -2.3011726e-03
 -3.2273938e-03
  1.5493671e-03
 -1.3709501e-03
  2.2712920e-03
  3.2362388e-04
 -4.3503796e-03
  3.9044869e-04
  9.7905658e-04
  1.1067119e-03
 -3.9000029e-04
 -1.6806817e-03
  2.3444335e-03
  7.0136151e-04
  4.4542328e-01
  3.4305584e-05
  3.8615367e-03
 -7.0348295e-04
  6.7083375e-04
 -3.0758542e-01
  1.9982179e+00
  2.6185930e-01
  5.3471124e-01
  2.0649679e-01
  6.6760015e-01
  1.7117034e-01
  2.1086117e-04
 -8.8026187e-05
  2.9102680e-01
  8.0946339e-03
  1.1212388e-01
  5.2362676e-03
  3.0752257e-03
 -2.5150883e-01
  1.2299457e-02
  7.0873215e-03
 -2.2663525e-04
  1.2852466e-03
 -1.4630435e-03
  1.0738587e-03
 -1.6789957e-03
  8.6241178e-03
  3.6834946e-01
  5.2505177e-01
 -1.4802605e-03
 -1.8669661e-03
  3.2328674e-01
 -6.9760359e-03
 -6.9079950e-04
 -1.6293576e-03
 -3.4286387e-02
  5.4783479e-04
  1.0525443e-03
  9.3525313e-02
  3.7945715e-01
  1.8370145e-03
  6.7535299e-03
 -4.7520286e-01
  7.5900681e-02
 -4.8903677e-01
  7.5001186e-01
 -3.0725123e-03
 -9.7668776e-04
  1.5045294e-03
 -1.7810605e-02
  1.5668663e-04
 -4.6337643e-03
  5.2324211e-04
 -8.3515060e-04
 -3.3437514e-03
  4.6216971e-03
 -7.0468513e-03
  1.7012879e-03
  2.8886015e-03
  2.1205390e-02
 -2.5341007e-01
  2.5622207e-03
 -2.0068446e-03
 -7.6492829e-03
 -3.5294218e-04
 -5.6734347e+00
 -5.0713937e-03
  3.4214711e-01
 -3.1712078e-04
  3.2112384e-01
 -1.9836254e-01
 -7.1130341e-01
 -5.3976780e-01
 -2.7331230e-01
 -2.5267299e-04
  1.4149977e-03
 -3.2527205e-03
 -1.0436408e-03
  7.1265884e-02
 -7.8645605e-04
  1.2578465e-03
  1.7870849e-03
  1.4960834e-05
 -9.8038674e-04
  1.2738418e-03
 -8.1073609e-04
  1.9786847e-03
 -2.7841949e-04
  1.4025172e-03
 -2.4216056e-03
  8.0625300e-04
  1.7066447e-03
 -2.3911656e-03
  8.9583611e-03
 -2.2089910e-03
  1.2131177e-03
 -8.5197494e-04
  5.2083208e-04
  2.4351667e-01
 -2.2334086e-03
 -3.3377051e-02
  4.4627390e-03
  3.7435435e-03
 -1.7776085e-03
  1.0327109e-03
  1.3747976e-02
  8.9916848e-02
  3.3089577e-03
  1.8885626e-02
 -2.5155878e-04
 -9.1110275e-04
 -3.3019137e-01
 -4.4718366e-03
 -4.8921804e-04
 -1.3634841e-03
  7.6543510e-01
 -2.5492264e-03
 -2.0232387e-03
 -1.0269274e-03
 -2.1227847e-03
 -3.0404320e-03
 -5.3223677e-04
  1.0175780e-04
 -1.9101992e-03
 -7.4717514e-03
 -1.6780997e-03
 -2.9334310e-02
 -1.5932706e-03
 -1.1427947e-02
 -7.1977591e-04
 -5.0748950e-01
  3.5899247e-03
 -5.5896235e-01
  2.7847243e-02
  3.3131438e-01
  2.0955948e-02
  4.6002268e-04
  3.0110050e-03
  1.6966797e-03
  2.9936826e-03
 -5.6505762e-04
 -1.5082086e-03
 -1.1658207e-01
 -2.3285120e-03
 -1.4710489e-03
 -3.2515207e-03
  2.5628502e-03
  1.2528530e-02
  9.9067855e-01
 -1.1699779e-03
  4.4241226e-03
  7.7362056e-04
 -1.4616325e-03
  1.9821317e-04
  5.0638742e-03
  3.5185940e-03
  9.6642796e-04
 -8.0138205e-05
  3.7832081e-04
 -6.1162276e-04
  9.4803021e-04
 -6.0062058e-04
  1.4541117e-03
  3.5109702e-01
  4.1267759e-01
  9.1134512e-04
  6.3231436e-04
  1.4349242e-03
 -1.0833432e-01
  1.6572869e-01
 -3.3776559e-02
  1.7453277e-03
 -1.8800810e-04
 -1.0582256e-03
  6.4742839e-04
 -5.5383714e-03
  7.9207082e-04
  1.3882138e-03
 -3.5964400e-03
 -2.0901114e-03
 -1.7273850e-03
  1.6049874e-03
 -1.4911888e-03
 -5.6981284e-04
  1.8724205e-01
 -4.3128682e-03
  1.6669148e-03
 -1.8610840e-03
  5.4524845e-01
  2.9848020e-03
  6.6216727e-04
 -3.6933187e-03
 -2.4991969e-03
 -2.2046678e-01
 -6.5408001e-04
 -2.6312307e-01
  1.4851899e-02
  2.4923089e-01
  4.1075838e-03
  2.3627027e-03
  8.0260728e-03
 -1.7009309e-03
  1.4837962e-03
  1.3266369e-03
  6.0214917e-04
  4.1215518e-03
  1.2366604e-03
  1.4015166e-03
  5.1723677e-03
 -7.0779789e-03
  4.4740220e-03
  3.2219643e-05
 -1.3192918e-03
  7.5743361e-03
 -3.8722113e-03
  5.3035514e-04
  2.1267573e-03
 -1.1587553e-04
 -1.2719220e-03
 -3.4312470e-04
 -2.2715188e-04
 -2.4647417e-04
 -1.1324964e-03
  5.0391056e-02
 -3.5059892e-03
  7.5448374e-04
  3.6961844e-03
 -2.8680568e-05
 -8.3631347e-04
 -1.1447152e-04
  1.2034613e-03
 -3.2399982e-01
  3.0031982e-03
 -1.7745749e-04
 -2.0272778e-03
 -3.1281316e-03
 -3.7222828e-03
 -2.2040831e-04
 -4.7860895e-03
 -1.2263715e-03
 -5.0116582e-03
 -5.5011623e-03
  1.6921165e-03
 -5.2858256e-03
 -9.7485655e-04
 -3.0740704e-03
 -2.1151425e-03
 -2.1884623e-03
  1.3357848e-03
  6.5223510e-05
 -1.3329536e-02
 -2.2417829e-04
  2.6616838e-03
 -6.0951156e-03
  3.2104952e-03
  1.8101427e-03
  9.6097961e-02
 -1.6880516e-02
  2.4219520e-01
 -1.2837799e-01
 -1.6463771e-02
 -2.7045363e-03
 -3.5658095e-03
  5.3542107e-04
 -2.2387602e-03
 -2.8702829e-04
 -4.6297052e-04
  4.3743444e-03
 -2.8449027e-03
  2.7406407e-03
  1.9045655e-03
 -3.6676256e-03
  1.9297121e-01
 -6.2782457e-04
 -1.6281019e-03
 -3.3065118e-03
 -1.8866193e-02
  1.1663267e-03
  1.4839553e-03
 -5.7775842e-04
 -3.4798381e-03
  7.1552402e-04
  1.1255775e-03
  6.0762314e-04
  2.2565036e-03
  1.2807382e-04
 -2.3525814e-03
  6.9819293e-03
  2.6974580e-04
  7.3563447e-03
 -4.9835799e-05
 -5.6041835e-04
 -8.7411306e-04
  6.2498247e-04
  1.5425964e-02
  1.1606636e-02
  2.3448501e-02
 -3.1686181e-03
 -1.0077961e-03
 -1.1296706e-04
 -2.9615854e-04
  5.1842193e-04
 -5.1142497e-04
 -1.3619859e-04
  1.3591532e-05
 -7.9148513e-04
 -2.7715764e-03
  8.8146271e-04
  3.7613709e-03
 -3.7752201e-03
  1.4199616e-04
  8.2191254e-04
 -2.0157325e-01
 -9.4891491e-04
  1.0128074e-03
  1.6745497e-04
 -6.5490714e-04
  1.9354834e-03
 -7.3236151e-04
  4.4767269e-01
 -1.4866592e-04
  1.2131928e+00
 -2.4987863e-02
 -3.9306185e-01
 -1.2424232e+00
  2.4383815e-03
  4.7790693e-04
  9.9132175e-04
 -3.4529490e-03
  1.4531590e-03
 -2.7658624e-04
 -3.0175599e-03
 -3.9293705e-03
  4.0304533e-04
  2.7875339e-03
 -9.7750593e-04
 -4.8322818e-04
 -9.2106359e-04
 -4.4877866e-05
  8.6105621e-04
  3.8474236e-02
  2.1168844e-04
 -1.1916215e-03
 -1.8822418e-03
 -2.9414117e-03
 -9.1794217e-03
 -3.8924075e-03
  9.9458906e-05
 -6.3408300e-04
  2.0414169e-03
  1.1839324e-01
 -6.5985327e-03
 -2.8857586e-03
  1.2355775e-03
  1.2406420e-02
  8.4272301e-04
 -1.2959070e-03
  1.6148245e-03
  3.8615937e-04
  1.1550210e+00
 -2.0361792e-02
  2.7657766e-03
  1.4088771e-01
  2.5935066e-03
 -9.5342332e-01
  4.2398898e-03
 -7.3052151e-04
 -4.0249107e-03
  9.6246554e-04
  2.9494313e-03
  7.2445848e-04
  2.0380566e-04
 -1.3041826e-05
 -3.4129859e-03
 -6.8482594e-04
  2.6345314e-03
  1.2528558e-03
  1.9196694e-04
  2.1127511e-03
  2.0596316e-01
 -5.8730602e-01
  4.5555612e-04
 -3.8378549e-01
 -1.2735772e+00
 -8.7680537e-01
 -1.0703961e-02
  8.3956820e-01
 -1.9980589e-01
 -5.1786500e-04
  5.7560897e-05
  3.2709693e-04
 -9.0625399e-01
 -3.8422611e-01
  3.2580022e-02
 -1.9595467e-03
  3.8857292e-02
 -4.8881677e-01
 -5.6981450e-01
 -1.4624631e-01
 -1.1939670e-04
 -3.3514664e-01
  2.0459071e-02
 -7.5109005e-01
  3.4353815e-03
 -6.1031666e-02
 -1.5244544e-01
 -7.3028743e-01
  1.1818150e-04
 -1.1843473e-01
 -4.0795830e-01
 -7.7981857e-04
 -4.8004004e-01
  7.0241541e-02
 -1.5676290e-01
 -3.2756433e-01
 -1.4216889e-01
  6.0570968e-04
 -1.0198230e-01
 -4.8431951e-01
  4.6148710e-04
  1.0050013e+00
 -1.8736064e-03
 -8.9760333e-01
 -6.1529320e-01
 -7.8710216e-01
  1.7114066e-03
  2.4774508e-01
 -1.5608177e-03
 -6.3839287e-04
  8.9828502e-03
  3.5481883e-04
  4.0275017e-03
  1.1216569e-03
  8.0315946e-03
 -4.8725429e-04
 -1.0863475e-03
 -2.0945915e-03
 -7.4357045e-04
  1.0580594e-04
 -2.7860428e-04
 -3.4064822e-02
 -3.8932401e-03
 -6.6690223e-04
 -1.1026798e+00
  4.9153566e-02
  2.5238950e+00
 -1.6355605e-01
  1.6937664e-01
  2.1367373e-03
  1.2168995e+00
 -3.7959723e+00
  3.4561661e-01
  9.2183724e-02
 -4.9679453e-04
 -3.8920617e-01
 -1.6253470e-01
  1.9515226e+00
 -8.2969815e-01
 -3.3674467e-01
  2.7215730e-03
 -7.0141238e-01
 -2.0891483e-01
  3.2994356e-03
 -5.4508853e-01
  1.3141355e-01
  2.1883712e+00
  3.0705744e-01
 -5.9418881e-01
  7.2596014e-02
 -1.1719699e-01
  1.8069319e-01
 -7.6254187e-03
  1.9388639e-04
 -2.6295185e-03
  2.6882906e+00
  2.5588123e-04
  4.0066082e-02
 -7.6118885e-03
 -1.2721150e-01
  9.2272498e-02
 -2.5119290e-02
 -2.9404494e-01
 -2.4762505e-01
  9.9917465e-01
  2.7265791e-03
 -8.9894986e-01
 -2.1051960e-03
 -4.6373641e-01
 -1.2213328e-03
 -1.6107887e-03
  9.8681273e-03
 -3.1294007e-04
  2.3263963e-01
 -2.9164995e-03
  1.1157519e-02
 -8.2366285e-04
 -1.6283114e-02
 -2.2629602e-03
  1.7624703e-03
 -1.2696482e-03
 -1.0258505e-03
  8.6922973e-02
 -4.3659601e-03
 -4.3558047e-04
 -8.3237304e-04
  7.7516225e-04
  1.4975967e-04
 -3.8364404e-04
 -4.9470767e-01
 -1.5487191e-03
 -5.9686577e-01
  1.6044649e-01
  2.8884453e-01
  1.9772325e-02
  8.3735352e-03
  8.1156461e-05
 -3.5343156e-03
  3.9175205e-04
  2.6129438e-03
 -5.2237679e-04
 -5.8062567e-04
  1.7986789e-03
  2.5185500e-04
  5.7018991e-03
  1.5291942e-03
  5.9187581e-04
 -6.2775543e-05
  1.0054689e-03
  5.6248289e-03
  2.3485098e-03
  6.4824121e-03
 -2.3389653e-04
 -3.5986380e-04
 -2.2670247e-03
 -1.0565707e-03
  1.3681483e-03
 -2.6684040e-03
  3.2220571e-03
  1.5666351e-03
 -1.6698785e-03
 -1.2135968e-03
 -3.8806139e-04
 -2.0898876e-04
  1.2985987e-03
  9.1585662e-04
  1.9476382e-04
  1.8763231e-03
  7.5603975e-04
 -2.5708454e-02
  1.0777527e-04
 -6.9573405e-03
 -1.7939038e-03
  3.3661807e-03
 -2.0987308e-03
 -5.3596596e-04
  1.1440769e-04
  8.1103761e-03
 -4.8300606e-04
  6.9809243e-02
 -4.6107627e-04
 -4.8836339e-03
 -4.6464708e-03
  2.1465919e-03
 -6.0183374e-06
 -6.4304896e-04
  3.0181133e-03
 -1.4154361e-04
  1.0784705e-04
 -7.9389671e-03
 -1.8629854e-03
 -6.8179501e-04
  9.7729340e-03
 -2.1037178e-02
  3.8429239e-01
  5.4986711e-04
 -3.1228328e-01
 -6.1691613e-03
 -5.5354528e-02
 -2.7036545e-05
 -8.3020335e-04
  4.0696567e-04
  2.0818543e-03
  7.0035009e-04
 -3.0620797e-03
  5.1852125e-03
 -4.6940636e-02
  6.2322151e-04
 -2.8289095e-04
 -3.2420931e-03
 -9.5572748e-04
  3.2843302e-03
 -4.4133145e-04
  1.7754100e-03
  1.8626477e-03
  1.1973074e-03
 -2.3129501e-03
 -1.7265533e-03
 -1.7890789e-03
  3.6119632e-03
  1.2089817e-03
 -1.2130973e-04
 -3.0664660e-03
 -5.1723589e-04
 -1.1486309e-03
 -1.9555972e-03
 -3.3883671e-03
 -1.0156912e+00
  1.5020007e-03
 -2.7731080e-03
 -8.0495340e-01
  4.9705824e-05
  2.4173397e-03
 -4.5125620e-03
  3.0606103e-01
  2.4531998e-03
 -1.5600941e-03
 -7.0598372e-04
 -2.9253608e-03
  7.0349383e-03
  2.4163327e-03
  1.1724498e-03
  4.4696229e-03
 -2.3633792e-04
  1.0688910e-02
 -1.8040569e-03
  4.3340100e-04
  1.1587596e-02
  1.1912384e-03
 -4.6516019e-03
 -1.3543196e-03
 -9.3790353e-04
 -1.8111647e-03
  3.3116242e-01
  1.0447248e-01
 -1.9830878e-01
  8.8222170e-01
 -2.8451288e-01
  2.3112034e-02
  2.3017064e-01
 -1.3480090e-01
 -8.1764325e-04
 -4.2412759e-04
  5.6963414e-04
  2.5789649e-03
 -1.1937626e-03
 -9.7691882e-03
  1.5861026e-03
 -8.4591750e-04
  2.0447813e-04
  4.7462694e-03
 -1.6380936e-03
 -3.1668099e-04
  5.3973770e-04
 -4.0714791e-01
 -8.7979957e-03
 -1.9410555e-03
  6.1773793e-03
  2.6908293e-04
  1.8953215e-03
  9.0455003e-05
  3.9610481e-03
  2.7403012e-03
  8.8113721e-04
 -1.7335141e-04
 -1.5774295e-03
  8.0914200e-05
  9.9154364e-04
 -1.6921549e-04
  3.3968512e-03
  1.1036776e-03
  2.9630710e-03
  2.8995746e-03
 -4.8686412e-01
 -2.4798015e-04
 -1.6906951e-03
 -1.0884311e-04
 -1.1949124e-03
  2.5609690e-03
  6.2965220e-03
 -1.9677717e-03
 -3.9640800e-03
 -2.3712931e-04
  2.9465787e-03
 -1.6244157e-03
 -1.1605429e-02
 -1.6935237e-03
 -1.3163125e-03
  2.2598850e-03
  1.6903331e+00
  8.4346300e-04
  2.3834962e-04
 -2.3682599e-03
 -5.4695673e-04
  1.2891156e-03
 -1.3525584e-03
 -7.5128546e-04
 -9.8517281e-04
  1.9655581e-01
  2.9879604e-03
  1.3001683e-01
  3.1680692e-04
 -3.9285031e-01
 -5.2932405e-04
 -2.7442430e-03
 -1.6969480e-03
 -2.1844737e-03
  1.5239038e-03
  2.4147497e-05
 -4.3329695e-04
 -2.2227284e-03
 -3.0782085e-04
 -2.8674709e-04
 -1.0228846e-03
 -4.4344380e-03
  4.1009304e-03
 -8.1487768e-04
 -2.0650427e-03
 -7.1068451e-02
 -4.2233816e-03
 -3.1861295e-03
 -5.4848031e-04
  4.8553088e-04
  5.7321560e-04
  1.0345550e-03
  7.2593195e-04
  3.6089194e-05
  3.9432358e-04
  1.5161687e-04
 -5.8386131e-04
 -1.7618893e-03
  2.1737714e-03
  8.2658708e-02
  6.5823224e-05
 -2.4037704e-01
 -1.5773511e-04
 -1.5997221e-03
 -1.0905501e-03
  2.3278433e-01
  2.0462193e-03
 -3.2118002e-03
 -3.7358269e-02
 -9.8434696e-04
 -2.6783065e-04
 -5.0240807e-04
  1.0007279e-01
  1.7914775e-01
  5.2164879e-04
 -1.5576652e-03
 -8.6990377e-04
 -9.5463009e-05
  1.2327887e-03
  2.7577006e-03
  5.1384321e-03
  1.6816303e-03
  4.3194150e-03
  1.1570580e+00
  1.9992269e-03
  6.9368648e-04
 -1.1812682e-04
  1.0632563e-03
  9.0684414e-02
 -6.0304757e-03
  5.0550338e-02
 -1.4219759e-01
 -4.9849841e-01
 -5.2706725e-03
 -1.9012529e-03
 -3.9588576e-04
  7.4148626e-04
  1.7369722e-03
 -4.4543548e-03
 -1.5809569e-03
 -3.8466256e-02
  1.0780018e-03
 -3.4676404e-03
  4.5560978e-04
 -1.6655879e-03
  4.3337038e-03
  1.4912601e-03
  8.9102639e-03
 -7.0913666e-04
 -3.8752465e-03
  2.0193113e-01
 -9.8616234e-05
  3.6012456e-03
  1.9544760e-04
  8.9554669e-04
 -5.0386703e-03
 -6.4615731e-04
 -1.0276766e-03
 -4.1325265e-03
 -7.0789238e-03
 -1.7802061e-01
 -2.7797329e-03
  3.3674849e-04
  4.5463503e-03
 -1.2851089e-03
 -2.4191837e-03
  1.1206603e-03
  2.8908863e-03
 -3.1131404e-03
 -4.7657602e-03
  2.5428782e-04
  6.8681961e-04
 -2.2214444e-03
  9.6546789e-04
  6.1144680e-03
  1.6480843e-03
 -1.3327848e-03
 -1.0805960e-03
  4.3042582e-03
  1.1689162e-03
 -2.5112103e-03
 -3.4931721e-03
 -1.7569229e-03
 -2.6152357e-03
 -9.8608376e-04
 -1.4154251e-03
 -8.4730104e-04
 -3.5414151e-03
 -4.6687517e-03
  1.6458195e-03
 -6.0593197e-04
  1.1181775e+00
 -5.2790010e-01
  8.9733973e-02
 -3.5234559e-01
  3.5129821e-01
 -5.1348269e-01
 -2.9743281e-01
  1.4590402e-01
  1.1003044e-02
 -4.4969735e-01
 -1.8422730e-01
  3.2503204e-03
  8.6236708e-02
 -1.7412291e-01
 -4.4207528e-01
 -1.6136695e-02
 -2.1933880e-01
  5.9884047e-04
 -4.4392520e-01
  4.1188407e-03
 -7.2384572e-01
 -3.4395803e-04
 -5.2704117e-03
 -4.2068616e-01
 -2.6369098e-01
 -5.4864562e-04
 -1.0709238e-03
 -6.4966971e-01
  1.6876586e-03
 -1.9710706e+00
  2.0661796e-03
  5.9071851e-01
 -2.0760143e+00
 -2.2062395e-02
 -1.2943799e-03
 -1.6070448e-01
 -2.6468129e-03
 -1.1569733e-01
 -2.9986260e+00
  1.9162292e+00
  5.8071971e-01
  1.6637199e-03
 -1.1167058e-01
 -2.5851154e-03
 -2.1326391e-03
  1.0144005e-02
 -6.0310459e-04
  3.3614340e-03
 -2.9759067e-03
  2.4264238e-03
 -2.9544674e-03
  1.0843172e-03
 -8.8790245e-04
 -7.5679796e-04
 -7.8672832e-03
 -4.6094842e-03
 -1.5043234e-03
  2.8174731e-04
  2.5704592e-03
 -3.5466929e-03
 -1.9385649e-03
 -5.6422013e-04
 -1.4981359e-03
  8.2023048e-01
 -2.7688174e-03
  3.2689995e-01
  1.0637518e-03
 -5.7086003e-01
 -1.5484242e-01
 -1.5053058e-03
  1.5407981e-03
  7.9820016e-03
  5.7536399e-04
 -1.6019562e-03
 -1.1221340e-04
 -2.1792094e-03
 -2.3633157e-04
  7.0871640e-04
  1.1564511e-03
  4.9023138e-04
  2.2776888e-04
 -1.4610854e-03
 -3.2758933e-05
 -6.8119785e-04
  5.4924732e-01
  1.8254340e-03
  2.1476473e-04
  5.9721620e-05
 -2.3422248e-03
  3.1824333e-03
 -2.2290936e-02
 -6.0018292e-03
  2.1255454e-03
  8.9142192e-04
  6.0383971e-03
 -5.7167136e-03
 -1.4149543e-03
 -2.2407395e-03
  1.8554088e-03
 -9.5774501e-04
  7.1203373e-02
  6.4704781e-03
  5.8941927e-04
  1.0233460e-01
 -2.2894118e-03
  2.1674947e-03
 -3.2042507e-03
 -1.4848794e-03
  2.5488748e-03
 -1.4616720e-03
 -3.3654154e-03
 -2.2305090e+00
  1.2625002e-03
  9.3744614e-04
 -4.1296501e-03
  1.9281359e-03
 -7.3281545e-03
 -1.5328246e-03
  5.3360563e-04
  6.1184340e-03
 -3.7137780e-03
  2.1119886e-03
 -6.9683779e-04
 -2.4019754e-03
  8.9078239e-04
  5.6105806e-04
 -1.2615864e-01
  2.6588959e-03
 -1.3979258e-01
  7.2108168e-04
  2.4543312e-01
  1.3345882e-03
  4.9022876e-04
  1.7624167e-03
 -1.8159777e-03
  1.9841739e-03
 -2.2913259e-03
 -3.3807876e-03
  6.6063441e-02
 -6.5781752e-04
  1.6529599e-03
  1.9715873e-03
  1.8345998e-04
 -1.5309723e-02
 -1.3118386e-03
 -2.2346646e-01
  2.8517549e-03
 -2.6169578e-03
  1.0535524e-03
  6.1799464e-04
 -1.4668970e-03
  1.8330630e-04
  4.1982044e-02
 -1.7646023e-03
 -4.9242567e-02
 -3.2205644e-04
  2.3872353e-02
 -1.2168744e-04
  2.4603825e-04
 -7.5191274e-05
  4.6177660e-04
  3.2868027e-03
  2.8059320e-03
 -1.5676166e-03
 -7.5454158e-03
  2.7774158e-03
  7.9602259e-04
 -5.7862146e-04
  2.7784972e-05
 -3.4868615e-03
  4.7752439e-04
  2.9956114e-03
  4.8666124e-04
 -2.1416922e-03
 -1.5281275e-04
  1.8137032e-03
 -4.2561744e-03
  2.6926016e-03
  4.5967966e-04
  4.4177569e-04
 -6.3390960e-04
 -4.8289546e-03
 -8.6878543e-04
  2.6517938e-04
  6.4718211e-03
 -1.5803849e-03
  1.0942133e-03
 -1.6012454e-03
  1.9613463e-03
  9.8963864e-02
 -5.5214716e-03
  3.8934091e-01
 -4.5905276e-03
 -8.4746754e-01
 -9.3798975e-05
 -1.1811924e-04
 -3.3021928e-03
  7.9784280e-05
 -4.2771898e-02
 -6.3026608e-03
  1.2132579e-03
 -2.2238672e-03
  1.7201240e-03
 -9.5412595e-04
  4.0640142e-03
  1.8047319e-03
  1.5119022e-03
  1.3250118e-04
  1.6002399e-03
 -8.0984674e-04
 -1.1571130e-04
  2.4564826e-04
  8.5048203e-04
  4.6472519e-04
 -6.2644586e-04
 -3.5147488e-04
 -8.8965002e-04
 -3.9164853e-04
 -2.6495790e-04
  1.4061611e-03
  1.9495756e-03
 -9.4974024e-04
  1.5373596e-03
 -9.5431111e-04
 -2.5608917e-04
 -3.1580068e-02
 -1.6068539e-03
  1.6450597e-01
 -5.9202185e-04
  6.1677936e-02
  6.1545771e-04
 -3.5065976e-03
 -2.2645697e-03
  1.0110058e-03
  5.8472116e-04
 -1.0931402e-03
 -9.4409619e-04
 -5.8621232e-04
  2.8783286e-03
  4.2275005e-05
 -1.1928531e-01
  4.6583260e-03
  6.8689817e-01
 -7.7800290e-04
 -3.1057640e-04
  4.7551081e-04
 -2.3915884e-04
  8.1993605e-04
  1.8986665e-03
  2.7970308e-03
  3.0278036e-01
  1.5278609e-01
  1.8468784e+00
  4.2991230e-01
  7.7946633e-03
 -6.8475294e-04
 -1.1364307e+00
 -1.2775804e-01
  8.0736630e-02
 -6.2246812e-03
 -1.6515926e-02
 -1.2687362e-02
 -4.5223701e-01
  6.2718466e-02
  3.7799522e-04
  3.3278343e-01
  1.2189743e-01
  1.0601500e+00
  3.2379240e-01
 -3.7544337e-03
  1.2249504e-03
 -2.6299071e-03
  3.3114719e-01
  5.1808479e-04
  1.0394718e-02
  4.0766037e-01
  8.5038044e-02
  5.4064329e-04
 -3.3800974e-01
  1.6141881e-03
 -1.1316533e-03
  2.5142511e-02
 -5.0111436e-03
 -2.2502571e-02
  7.7087946e-02
  6.6537261e-01
  2.1888973e-01
  9.5527116e-03
  2.7622846e-01
 -2.3126110e-01
  4.3086123e-01
 -3.3914903e-01
  3.4472439e-01
  6.9422477e-01
  6.1357999e-01
  7.3224044e-04
 -2.4793472e-04
 -3.4876473e-03
  4.8955935e-03
 -8.0088768e-03
  2.7210370e-03
  2.5012731e-04
  2.0589770e-03
 -6.7602093e-03
 -3.6052422e-04
  3.5662550e-04
  4.8198772e-04
  1.5549622e-03
 -1.0014630e-04
  2.2016078e-05
  1.2080747e-04
 -2.8126145e-04
  2.2128946e-03
 -3.1934176e-02
 -2.6754295e-03
 -3.9738762e-01
  3.1537323e-03
 -8.9146033e-02
  3.2494429e-03
  4.2015326e-01
  1.0070486e-03
  1.7521206e-01
 -2.6891037e-04
 -1.3448532e-04
  8.2714146e-04
  3.2516751e-03
  2.1306854e-03
  4.4088840e-04
  4.6468130e-03
 -1.8927110e-03
  1.4417310e-03
  1.0889774e-03
  5.1399495e-04
  2.4270505e-04
  2.2558153e-03
 -7.8175991e-04
  1.1158410e-03
  3.2626875e-02
 -1.5601049e-03
 -1.3482705e-03
  3.2621820e-04
 -1.2318541e-03
 -4.8822339e-04
  7.2132889e-04
  3.0835028e-04
 -2.7817991e-03
 -7.7710643e-02
  4.3326258e-04
  1.9753898e-02
 -7.9733800e-05
 -8.3752393e-06
  5.7595043e-05
 -6.8452778e-07
 -1.5781970e-01
 -2.9546462e-04
  6.2388899e-05
  1.1987700e-03
 -3.0751273e-04
 -1.5409858e-03
 -3.2415905e-03
  3.9783050e-04
 -3.0893940e-03
 -1.8227361e-03
  9.0314215e-01
  1.8113967e-03
 -5.8776139e-05
 -8.1631605e-04
  1.2955056e-03
  7.7901001e-04
 -3.8035661e-03
  6.4354925e-04
  4.6890806e-03
 -2.3171763e-04
 -2.0571505e-03
  8.0441579e-04
 -4.2974199e-03
 -3.4308685e-03
 -1.5531202e-03
 -1.4500059e-01
 -1.9362753e-02
 -3.8693130e-01
  1.0386454e+00
  1.1664907e+00
  5.4744971e-01
  8.7305807e-02
  5.3459173e-04
  7.7788020e-05
 -1.7219306e-03
  7.3514514e-02
  2.4496617e-03
  2.1519187e-01
  5.9337046e-02
 -2.8436380e-03
  3.3734085e-03
  6.3391596e-02
 -3.6233789e-03
  4.2651789e-03
  7.9430975e-02
  2.3847688e-03
 -2.4493942e-03
  2.6008411e-04
 -1.4837020e-03
  6.4683019e-04
 -1.3246634e-03
  7.1190408e-04
  2.3747138e-03
 -4.8902691e-03
  1.2610622e-03
 -1.1105281e-03
 -2.7173506e-02
  5.9773643e-03
 -2.7504825e-04
  1.3257869e-04
  2.1687995e-03
 -1.4636375e-03
  1.5549000e-03
 -2.3544179e-01
  2.3309562e-04
 -1.4703973e-01
 -3.4593975e-03
 -1.6604888e-04
 -7.3561534e-02
 -1.6698644e-03
  2.9283960e-04
 -3.7547003e-03
 -3.6648321e-03
  1.6678952e-03
  2.8589481e-04
  6.3067311e-01
  1.8197868e-03
  2.9718727e-03
 -1.3372658e-01
 -1.0490835e-03
 -4.2422167e-03
  2.5354393e-03
  4.2644897e-03
  5.5482599e-04
 -3.8997578e-03
 -1.9088292e-03
 -2.0907675e-03
 -4.8648911e-03
 -6.9411474e-01
  7.5681071e-04
  3.2962281e-01
 -2.1798794e-01
 -5.1516831e-01
 -2.1834980e-01
 -2.1866516e-03
  5.0561869e-04
  4.7140955e-03
  1.3812745e-03
 -2.2042386e-04
  1.1896159e-03
 -1.8539061e-03
  1.2359400e-03
  1.6746931e-03
 -4.6791325e-04
  4.2313183e-04
  3.3181641e-04
 -5.0124637e-04
 -4.7602609e-04
 -3.6564055e-03
  1.9685712e-04
 -9.2734949e-04
  3.4715622e-03
  3.0440600e-03
 -3.3125405e-03
 -1.5574594e-03
  2.2156490e-04
  3.4202968e-03
 -2.6052496e-03
  3.1873587e-04
  2.1773952e-03
  1.1241079e-03
  3.4524237e-03
  8.3069513e-03
 -1.2093568e-04
 -2.5030216e-03
  4.1217991e-05
  4.8020370e-03
  6.9626293e-04
  3.9523919e-03
 -3.6688235e-02
 -4.7017081e-04
  1.7716392e-03
  7.1106071e-04
 -8.9323829e-04
  7.1807735e-04
 -7.6514105e-03
 -2.1219834e-04
  6.9229947e-03
  8.0569320e-05
  2.5178387e-03
  2.7422637e-03
 -4.6418482e-04
 -2.4592788e-03
  2.1067612e-04
  2.7671661e-03
  2.5084226e-03
 -9.8827012e-02
 -5.6703612e-03
 -8.7022386e-04
 -3.6462667e-04
  8.8596903e-04
 -6.0875219e-01
 -1.9750923e-03
 -1.8137997e-01
  5.0971165e-02
  4.5564402e-02
  4.9181640e-02
  1.9129882e-02
  2.6303171e-03
 -2.3354732e-03
  5.0407148e-04
  4.0287825e-01
 -5.0195087e-02
  3.9546597e-03
  8.0095208e-04
 -1.0909333e-03
 -1.1732867e-04
  1.3743415e-04
  7.3507876e-04
  1.8676630e-03
  2.2512188e-03
  1.5509848e-03
 -8.1880338e-04
 -8.4734161e-04
 -2.4700016e-03
  9.6719330e-03
  3.6504562e-04
  9.3309232e-04
  5.0353790e-03
 -3.2552404e-03
  3.8085727e-03
  5.2884093e-04
 -4.8773724e-04
 -8.4422692e-04
 -7.9723727e-03
 -6.0191500e-04
 -3.1172240e-03
  3.1587488e-03
  7.7754911e-04
 -1.7008327e-01
 -4.3117660e-03
  1.3476814e+00
  2.6878691e-01
 -7.3957053e-04
 -2.1529524e-03
  2.3971354e-03
 -6.9801690e-04
 -4.5820666e-04
  5.5934046e-04
  8.0668209e-03
 -2.2730345e-03
  1.4648496e-03
  9.6953858e-04
 -6.1744399e-04
 -3.3873892e-03
  7.3916902e-04
 -6.4998615e-04
 -2.2830071e-04
 -7.6455120e-03
  1.9703279e-04
  2.1738468e-03
  4.7637313e-04
  2.7613476e-04
  2.2168718e-03
  6.9405563e-02
  2.3886624e-03
  1.9713749e-01
 -9.0309428e-03
 -1.3297953e-01
 -5.0966959e-02
 -8.1961669e-05
  2.1310998e-03
  1.2913765e-03
 -1.1126910e-04
  8.5256266e-04
  4.5547436e-04
  1.4100467e-03
 -9.9470792e-03
 -2.0542850e-03
 -3.1754578e-04
  3.0591604e-03
  3.5300532e-03
 -4.4884550e-04
  4.9126633e-03
 -2.6447112e-03
 -1.5798869e-03
 -5.3098710e-04
 -1.7258418e-03
 -1.5794787e-03
  1.0340768e-03
 -1.1065356e-03
 -5.6985617e-03
  1.1552689e-03
  3.1303221e-03
 -5.8237312e-04
  4.6443357e-03
 -1.2640208e-03
 -4.9684290e-03
 -2.9244816e-02
  2.1260160e-04
 -7.4665048e-03
  1.6947092e-03
  1.5730993e-03
  2.7324012e-04
  3.1844645e-03
  2.4578808e-04
  1.8795105e-03
 -1.8392737e-03
  1.2021343e-04
  7.5893495e-03
 -3.0158064e-03
  9.5871472e-01
 -1.5384334e-03
 -2.3534845e-03
  5.5157486e-04
  2.4268900e-03
 -1.0527230e-03
  1.1188317e-03
 -5.7304278e-04
  6.9607445e-04
 -2.6789142e-03
  2.3974618e-02
  8.2052185e-04
  2.5262597e-03
  3.6895992e-03
 -2.5427723e-01
 -2.4489460e-03
 -6.8411529e-02
 -2.7607770e-03
 -1.9024806e-01
  1.4918711e-02
  2.6258165e-01
  4.5809760e-03
  1.1512958e-01
 -4.1812815e-04
  2.0037869e-03
  6.5358885e-04
 -1.2453132e-02
 -3.4181395e-04
 -1.2302231e-03
  1.1994822e-03
 -1.5403033e-03
  2.2606271e-04
 -3.0995076e-04
 -9.6802833e-03
 -5.0197649e-03
 -3.7535179e-01
 -1.1035553e-03
 -4.6346661e-01
  5.5216474e-04
  6.1376969e-04
  4.5557851e-03
 -2.1248537e-03
  2.9545056e-03
 -5.1814026e-01
 -1.2835524e-03
  2.4474047e-02
 -1.6938616e-03
 -4.6658432e-03
 -1.1787071e+00
  1.7829081e-03
 -1.6850885e-03
 -1.7624733e-03
 -1.0709251e-02
 -1.1236399e-03
 -1.5474234e-03
 -8.9194911e-04
 -2.9176206e-04
 -1.6490467e-03
 -9.0142450e-04
 -1.2589087e-03
 -6.9687661e-04
 -3.2182815e-03
 -1.9220937e-03
  2.9428099e-06
 -1.7260143e-03
  2.1255482e-03
  1.5125584e-03
  1.9015324e-04
 -1.0901797e-03
 -1.0092899e-03
  4.7280877e-03
  5.0654840e-03
 -2.5677888e-03
 -5.3423637e-04
  1.9051178e-03
  2.2138094e-03
  1.1382679e-01
  4.1165883e-03
 -5.9525082e-03
  1.4286969e-03
 -1.0442797e-04
  1.3598262e-01
  6.6658674e-04
 -3.6971226e-01
 -7.2845720e-02
 -2.8285754e-03
  1.5695982e-01
 -4.8467587e-03
  1.1526539e-03
  1.3622441e-05
  3.3271232e-01
  2.1970167e-03
  2.7184619e-04
 -8.4291998e-04
 -5.5510364e-04
 -3.1427410e-03
 -6.0680590e-04
 -9.8871347e-04
 -1.8360815e-03
 -1.2780449e-03
 -1.0306194e-03
  1.9527401e-03
 -2.5039614e-04
  8.0341619e-05
  2.6402972e-03
 -6.8582239e-04
 -2.1484075e-03
  5.4227996e-05
  1.1745810e-03
  4.3162107e-03
 -1.0562247e-02
  1.2259866e-01
 -1.4693523e-03
 -1.3936545e-02
  6.9325251e-05
 -5.0304027e-04
  2.5578800e-03
 -1.2727419e-03
  7.5861590e-04
  2.5999224e-02
 -4.1877064e-03
  1.8796870e-03
  1.3016966e-03
 -5.4951769e-04
 -1.3095579e-01
 -1.9502969e-03
  1.1345682e-03
 -5.4673099e-05
 -2.3025674e-04
 -2.9960794e-03
  3.1961268e-03
  1.0286625e-04
  2.3503352e-03
 -1.1663544e-03
  3.0974122e-03
  7.2228545e-03
  2.7729017e-03
  4.9357163e-04
  5.3065741e-03
 -7.6080300e-04
  1.8808315e-02
  7.6306607e-03
 -1.1258210e-02
 -2.0163906e-04
 -2.7497813e-01
  6.7565381e-04
  2.4179734e-01
 -5.8396533e-04
 -5.5532058e-04
 -1.3565822e-01
  4.7633611e-04
  1.1404796e-03
 -2.1632828e-03
 -9.5727751e-03
 -5.9363758e-03
  2.3864491e-01
 -1.6194034e-02
  5.8545512e-03
  1.3923347e-04
  6.1146403e-04
 -5.9103906e-05
  4.3613217e-03
 -1.5210038e-03
 -1.4793972e-04
  4.7340682e-03
 -3.9571131e-04
 -5.2392425e-04
  4.0875338e-03
 -2.2724972e-04
  3.1509830e-04
 -1.9694120e-03
  5.5238293e-03
  5.7014244e-05
  1.6792619e-03
  1.1812673e-03
 -2.6597539e-03
  2.3876475e-03
 -1.4806542e-03
  2.2230393e-03
  8.4709950e-02
  1.8134071e-03
  1.7753226e-03
 -7.1861041e-03
 -3.3594547e-03
  9.5587924e-02
 -6.0419808e-04
  3.5228074e-04
 -6.8580965e-04
 -2.0668118e-03
  1.0277752e-03
 -2.3134183e-03
  1.3923107e-03
 -1.6808272e-03
  1.8900411e-03
  8.3284462e-03
  3.4266750e-03
  3.4216223e-03
 -1.7272861e-03
  1.8531426e-03
  2.7994826e-03
 -8.8836305e-04
  8.7580327e-03
  5.5222083e-03
 -2.5987116e-04
 -1.9559529e-04
 -2.2135460e-01
 -7.2824179e-05
 -3.3600220e-01
  1.1045897e-01
  4.9871343e-01
  9.0938084e-02
  1.2113374e-02
  1.0271855e-03
 -1.4168287e-04
  5.1129507e-03
  7.5570802e-04
 -1.0626137e-04
  1.9510345e-03
 -2.3880871e-03
  1.5004856e-03
  6.9483590e-01
 -2.2064832e-03
  7.6240147e-03
  6.9860579e-04
 -2.5663602e-03
  6.3334510e-04
  5.0920644e-04
  4.6836078e-02
 -1.6658701e-02
 -2.1757677e-03
 -2.8902476e-03
 -2.6761135e-03
  2.0799245e-04
  3.9963465e-04
  1.9832675e-03
  2.6203638e-03
 -4.6793306e-03
 -1.1786883e-03
  5.8423349e-04
  2.0629033e-03
 -9.0828346e-04
  8.1686286e-04
 -2.6890496e-03
  5.3739478e-04
 -4.7131954e-03
 -8.8994846e-02
  3.3414157e-04
 -1.1716211e-04
 -4.9981102e-04
 -1.9640091e-03
 -4.9010513e-04
 -3.1101846e-03
 -1.4386525e-03
 -2.1037513e-03
  1.6547865e-03
  6.2235692e-03
 -1.0777268e-05
 -5.7554990e-04
  5.2825699e-04
 -1.4154590e-04
  2.2232344e-03
 -4.3616354e-04
  4.7469354e-04
 -3.9345305e-03
  2.7776582e-04
  1.4661665e+00
  1.6723312e-02
 -1.2178739e-03
 -4.4442955e-01
 -3.2787863e-02
 -5.3594714e-01
  2.4671361e-01
  1.1052969e+00
  4.9870473e-01
  5.9073255e-03
 -1.1171060e-01
  1.2949830e-01
  4.9802698e-03
  2.2802884e-02
  1.5319887e-03
  6.0356744e-02
  1.4738457e-01
 -5.3134278e-05
  3.8708830e-03
 -1.8922046e-03
  2.3229243e-03
  4.7532250e-03
 -1.3064811e-04
  2.4653783e-03
 -4.6220176e-02
 -1.8243692e-03
  2.8156984e-01
  4.8805019e-03
 -2.1349681e-03
 -1.2551452e-03
  9.7224268e-04
 -1.0008542e-01
  1.0647916e-02
 -5.7053100e-04
 -2.7866742e-01
 -3.5725949e-05
 -1.0975233e-02
 -1.6408155e-02
 -1.7591774e-03
 -1.7014497e-03
 -5.4172880e-04
 -6.2159467e-01
 -6.1714053e-03
 -8.7518051e-02
  4.1437364e-04
 -1.4162007e-03
  1.0436163e-03
 -6.7039323e-04
  1.5887744e-03
  3.5792822e-04
 -1.0335367e-03
  4.4696727e-03
 -2.5061896e+00
 -1.0305366e-03
 -6.0177787e-04
 -2.0173234e-03
 -5.3927297e-04
  1.8608514e-03
  5.0653345e-03
  1.2070583e-03
  2.6330575e-03
  5.2218777e-01
  1.8150497e-03
 -3.1096030e-03
  1.2187934e+00
 -1.5192757e+00
 -2.3114421e+00
  1.7677482e+00
  1.4517021e+00
  4.8545882e-01
 -8.8287938e-01
  8.4906387e-01
 -1.2824808e+00
  1.4501150e+00
  1.9400468e+00
 -1.7049994e+00
  1.1480598e-01
  1.6706978e+00
 -1.3382543e+00
 -1.5535355e+00
 -1.9152236e+00
  2.0058191e+00
  1.4350955e+00
  4.8885590e-01
 -3.4728220e-01
 -1.4164544e+00
 -3.3862257e-01
  1.7928811e+00
  1.4263153e+00
 -2.8639799e-01
 -6.0685796e-01
  7.5106531e-02
  1.7405597e+00
  1.5087271e+00
  1.5189351e+00
 -3.2849392e-01
  1.0806195e+00
 -3.6135292e-01
  1.2040774e+00
  1.4088423e+00
 -1.8449689e+00
  2.9243075e-03
 -2.4832811e+00
  3.3990227e-02
  1.8816341e-01
 -1.6471500e+00
  1.3823341e+00
 -1.4099694e+00
 -8.5038465e-01
 -6.4624137e-01
 -1.1846865e+00
  1.4467087e+00
 -7.3838234e-01
  3.0423117e+00
  1.3286858e+00
  3.5913128e-01
 -1.3575610e+00
  1.8365480e+00
 -1.5622959e+00
  1.2522398e+00
 -1.9812677e+00
  1.4538525e+00
  1.7351024e+00
  6.7418462e-01
  1.1446117e+00
 -8.2113796e-01
 -3.8816125e+00
  1.9575106e+00
  1.6480522e+00
  3.3733746e-01
 -3.3804886e+00
 -2.1144350e+00
 -1.4338444e+00
  2.9151535e+00
  1.2897500e+00
 -1.4224331e+00
  3.8177185e-02
  9.6980411e-01
 -3.5360786e-01
 -1.1680703e+00
 -2.5939620e+00
 -1.3150032e+00
  6.6797686e-01
  2.4178102e+00
 -1.1813710e+00
 -2.4306214e+00
 -2.6127431e+00
  1.7372203e+00
  3.4549882e+00
 -4.5655841e-01
 -3.1180069e-01
 -8.8825345e-01
  1.2890440e+00
  1.5351714e+00
  1.1404799e+00
  8.4103000e-01
  1.7737831e+00
 -3.4713557e-01
  1.5440212e+00
  1.0182835e+00
 -1.9945855e+00
 -4.2967004e-01
 -2.1730952e+00
 -2.1551683e+00
  3.5742414e-01
 -1.1580622e+00
  8.8999295e-01
 -7.5100857e-01
 -4.3261033e-01
 -1.4556377e+00
 -1.3753309e+00
  7.1120387e-01
 -5.7557237e-01
  5.5366845e+00
  1.0640113e+00
  1.2783982e+00
 -7.7849478e-01
  1.5360088e+00
 -1.1371276e+00
  4.8586822e-01
 -2.4047081e+00
  8.5685092e-01
  4.2658005e+00
  2.0383322e+00
 -2.3037859e-03
  1.7286354e+00
 -2.0790435e-02
 -6.0822004e-01
  1.6474390e-01
 -9.0943165e-03
  1.4641436e-04
 -5.1284116e-03
  1.2779590e+00
  2.3239355e-01
 -2.0839479e-03
 -2.8330840e-05
  6.1950076e-04
 -2.6144180e-04
  1.8336194e-03
 -2.1156862e-03
  2.5651357e-03
  1.0258101e-03
 -9.6651306e-03
 -1.4890217e-04
 -3.3145957e-03
 -8.2008550e-03
  5.2476604e-03
  2.1223167e-03
 -5.9579201e-03
 -4.2617038e-02
 -6.5906282e-04
 -1.0336231e-03
  1.2328570e-03
 -1.0165588e-02
 -5.9143584e-03
  1.4170212e-03
  3.3755030e-03
  2.0400867e+00
 -7.0292800e-04
  4.6474102e-04
 -9.5030712e-03
  2.6985686e-03
 -1.5950522e-03
 -2.0951130e-03
 -8.9359529e-02
 -2.6320787e-03
 -2.2986822e-01
 -1.5469527e-01
  1.1694250e-01
  2.3806279e-03
 -1.9610003e-02
  4.5261020e-04
 -1.3019878e-03
  1.9238768e-04
 -2.7756114e-03
  5.6654653e-03
  2.0161545e-04
  4.0949304e-03
 -1.1763803e-03
  1.2009201e-03
 -1.6438428e-03
  3.6844269e-03
 -1.0359231e-03
  1.0403967e-03
  5.7139923e-04
 -5.7313405e-03
 -2.2306404e-04
  1.4904626e-03
  5.2797186e-01
  3.5142966e-03
  2.1667207e-02
 -1.0452621e-01
  2.0153072e-01
 -1.3258189e-03
  1.0545781e-01
 -1.4587489e-02
  4.9668932e-03
  5.4357615e-03
  3.7551619e-04
  1.2298179e-01
  4.5215935e-03
  6.7634240e-04
  9.2787156e-04
  4.2046849e-03
 -2.1630679e-03
 -1.2105122e-04
  2.6827704e-04
 -2.6734213e-03
 -1.4635135e-03
  9.3129434e-04
  1.0694197e-03
  1.7740931e-03
  3.8411301e-03
  2.8471712e-02
 -9.1151771e-05
  2.4844448e-03
  1.1050154e-04
 -1.7217182e-03
  1.0693218e-02
  9.3006674e-05
  4.2207171e-03
 -6.8873615e-04
  3.3417123e-03
  2.5553298e-03
 -1.2750107e-01
 -2.8157359e-04
  4.5958422e-03
  3.7411822e-03
  2.8830698e-02
  1.3937263e-01
  5.7841386e-03
  1.0473764e-02
 -6.7184598e-04
  1.4572093e-03
  3.1371755e-03
 -5.6719142e-03
 -1.4054528e-03
 -6.6842027e-03
  9.8359515e-04
  3.1476825e-02
  4.0988460e-02
  2.4148529e-04
  1.0709504e-01
 -2.0645872e-04
  1.4945322e-03
 -9.4075790e-03
  2.8035141e-04
  1.2394495e-03
  2.5188832e-03
  1.5554776e-03
  5.7064988e-02
  4.1515902e-01
  7.7827491e-02
  8.1624925e-02
 -2.3037167e-01
  4.9212191e-01
  5.3538410e-03
  5.2985615e-01
 -3.9456248e-02
 -1.8896511e-05
  3.0275895e-03
  1.4828580e-03
 -1.1867589e-03
  2.2083182e-02
 -6.7516309e-03
  9.6606032e-04
  2.6403244e-03
 -1.8637066e-04
  6.8348749e-03
 -5.1363478e-03
 -1.6708944e-03
  2.6204492e-04
 -3.2703902e-03
  1.2570194e-03
  1.8037322e-03
  5.5264486e-03
 -2.1155804e-05
 -2.8910157e-03
 -1.8893964e-04
  1.1983905e-03
 -1.4182311e-03
  1.2087478e-02
 -3.6500324e-03
  2.1243314e-01
 -2.7730441e-01
  6.2305102e-05
 -1.9047145e-02
 -9.1599636e-03
 -5.0188899e-01
  6.9627602e-04
  2.0336680e-02
 -3.2203514e-03
  2.7196440e-01
  5.9073847e-02
 -9.6609576e-05
 -1.2039056e-03
 -2.1444529e-03
 -2.1204546e-03
 -6.4107613e-04
 -2.5784343e-03
  9.5032487e-04
 -6.2898378e-04
 -2.8643985e-03
 -4.6464601e-03
  1.2628527e-04
 -1.4115756e-03
  8.8815395e-06
 -1.0884772e-03
  2.5218502e-03
  5.9742603e-02
 -1.1726690e-03
  9.9031255e-04
  7.9420925e-04
 -6.2416010e-02
 -5.5741674e-01
 -2.1608852e-02
 -3.1574976e-01
  5.1890081e-01
 -5.1747918e-01
 -1.2212954e-01
 -3.3714876e-01
  2.9045317e-01
  5.2266507e-03
  5.5856688e-04
  6.2766345e-03
  1.3284910e-03
 -6.6294149e-02
  2.2242688e-04
  3.1607263e-04
 -5.7721785e-03
  5.4081931e-04
 -6.2446448e-04
  9.1175465e-03
  1.1558189e-03
 -1.8232702e-03
 -6.4620340e-01
 -2.7884683e-03
  1.4806505e-01
 -1.9194119e-02
  9.0412016e-04
  1.0683720e-03
 -1.5407328e-03
 -2.7574459e-03
  2.3429787e-03
 -1.8057393e-01
  9.0652826e-04
  2.3947987e-01
  4.1805895e-04
  4.2990225e-04
 -2.0304273e-04
 -4.9754479e-03
 -5.3993201e-01
 -4.8261799e-04
 -4.9192348e-01
 -4.4458359e-03
 -3.0535912e-02
 -1.0736211e-03
 -1.0518082e-03
  1.9000067e-03
  4.6468434e-01
  9.6090382e-04
 -6.7338627e-04
 -2.6124066e-02
 -8.9295680e-04
  2.0244480e-03
  1.2106183e-04
  1.2162371e-03
  1.5170325e-04
  1.2853218e-04
 -3.6496870e-04
  9.6850144e-04
  4.0432984e-05
 -4.4176565e-04
 -1.6760229e-03
 -3.4738178e-03
  1.1556625e-03
  7.4836023e-02
  1.2884258e+00
 -7.3139554e-01
  4.0077521e-03
 -1.6637884e-01
  3.3484727e-01
  4.3391781e-03
  1.6932076e-01
 -4.7261626e-02
 -1.4636447e-02
  1.1928920e-03
  7.7116494e-03
  9.9555150e-02
 -1.1015444e-01
  2.7672536e-04
  2.6960470e-04
  4.2053048e-02
 -1.5157030e-03
 -6.7038786e-01
  9.1048948e-02
 -2.2370957e-03
 -2.1793090e-03
  9.8098582e-03
 -2.2703405e-01
 -3.4574329e-04
  1.1789767e-01
 -1.3846428e-03
  9.7263989e-04
  3.9591555e-02
  1.5169166e-03
  3.8960907e-03
  2.5425977e-01
 -4.8703034e-03
  3.5061795e-04
  8.5607338e-01
 -1.7448991e-03
  1.3876139e-01
 -1.1886492e-03
  1.4062587e-03
  9.2222187e-04
  4.5519877e-02
  4.7056745e-03
  5.5178415e-02
  4.5448731e-04
 -1.1956039e-03
  5.3786553e-02
 -8.4903906e-04
  1.8522238e-03
  1.6623608e+00
  1.2834470e-03
  3.0449257e-04
  8.9083670e-04
 -3.4263565e-03
  1.9574121e-03
  1.3844500e-03
  1.5812737e-04
  1.2383168e-03
 -5.7286415e-03
  8.9430921e-03
 -4.9023318e-01
  1.1456333e-03
  1.7436700e-03
  1.9035584e-05
 -4.2339385e-02
 -3.4341970e-01
 -3.3987053e-02
 -8.2809078e-03
  2.0959075e-01
 -4.4068447e-01
 -2.8509472e-03
 -3.3520779e-01
 -2.4366142e-01
  1.9378418e-02
  2.0700179e-03
  1.0923629e-06
 -6.3684404e-02
 -6.4783683e-03
  3.2050174e-03
 -1.4440021e-04
 -3.1389687e-02
 -4.7139052e-02
  2.9121682e-03
  1.2500121e-03
 -1.3070209e-03
 -6.1472724e-03
  3.3982447e-03
  3.4208007e-03
 -2.2151263e-03
 -9.7138369e-03
 -4.1203182e-03
  2.5313757e-03
 -9.7631791e-04
 -4.2295321e-03
  1.1256879e-04
 -1.7319903e-02
 -1.4581743e-01
 -9.8076137e-03
  2.7766612e-01
 -1.1520665e-03
 -3.7726925e-03
 -2.2266315e-04
 -1.3064743e-03
 -2.9534093e-04
 -7.2551191e-01
 -3.7081917e-03
  1.0864794e-01
 -2.9217943e-03
 -2.5264255e-04
  2.0345947e-04
 -1.9508596e-05
 -4.8425054e-04
  1.6184563e-03
  3.6061180e-03
  6.1280644e-03
 -7.3341318e-05
 -4.0095109e-03
 -2.8897830e-05
 -3.2429763e-03
 -4.1939253e-05
  5.8885926e-04
  5.0563517e-04
 -1.2097157e-03
  4.2164747e-06
 -1.3874844e-02
 -4.2230694e-04
 -5.8972492e-04
  9.6907049e-02
  1.8544248e+00
  3.8934222e-01
  6.6436611e-02
 -4.3144634e-01
  1.4440796e+00
  5.9759583e-02
  5.8659053e-01
 -2.7848783e-01
 -8.1296915e-01
 -8.4377825e-02
  1.0406867e-02
 -7.2745397e-04
 -1.5232565e-01
  3.1330641e-02
 -5.9957868e-01
  1.8172881e-01
 -9.8160349e-02
 -2.0322774e-03
 -2.3980038e-01
  3.8029577e-03
 -5.7077087e-02
 -6.1284536e-01
  9.2492513e-03
 -3.8493860e-01
  1.1077933e+00
 -5.9128995e-04
 -3.9004808e-05
  4.2808212e-02
  1.1191641e-03
 -2.6726348e-03
  8.5448229e-01
  1.0162316e-03
  2.9202104e-01
 -2.6910713e-02
  2.3964453e-03
  1.1904993e+00
 -8.4631622e-02
 -2.1782622e-04
 -4.1530323e-03
  4.2213273e-01
  9.4019377e-04
  2.9067391e-01
  8.1058167e-02
  2.5433591e-03
 -2.6397470e-02
 -1.6529197e-01
 -2.4704803e-03
  4.2183846e-03
  2.0684726e-03
  1.6908227e-03
  1.1621179e-01
 -2.1826169e-04
  3.3492055e-03
  6.7648466e-06
 -3.6192134e-02
 -1.2343486e-03
 -1.5209777e-03
  4.3330193e-04
 -7.4473885e-03
  9.5390202e-03
  1.9952925e-01
  2.5697271e-03
 -2.9016209e-03
 -1.3817275e-01
 -1.0866072e-03
 -4.8108376e-03
 -5.5665487e-01
 -2.6511502e-02
 -1.5308245e-02
 -4.4960663e-02
  1.1790580e+00
  5.6465943e-03
  6.2771805e-04
 -1.8728705e-04
 -1.2855279e-02
 -9.0376223e-03
  2.2421218e-03
  1.3746696e-03
 -3.6245340e-04
  1.4087002e-03
  8.0962596e-04
  3.2004731e-04
 -9.3855872e-04
 -2.1137162e-03
  1.7081032e-03
  2.1580949e-03
  1.1999607e-03
  8.4263447e-04
 -1.0349827e-04
 -8.8822591e-01
 -1.0635157e-03
  4.4481049e-04
  5.0922483e-04
 -8.9201052e-03
  2.3584834e-03
  1.0471679e-03
  9.7938394e-04
  2.7068015e-03
  1.3050955e-03
 -5.7573901e-03
  6.7032827e-04
  2.0151688e-03
 -6.3889090e-04
  2.9736836e-03
 -5.5665642e-02
 -4.7193132e-03
 -5.6676459e-02
  9.9951439e-03
 -3.6575788e-05
  2.1104520e-04
 -1.8036354e-03
 -3.4412211e-03
 -5.4302691e-03
  3.4406048e-03
 -3.8614012e-03
  3.7228758e-03
 -8.9652539e-04
 -1.9066804e-04
 -2.0573316e-03
 -1.6971000e-03
 -3.3610465e-03
  3.4452099e-04
 -4.0335832e-03
  2.7575183e-03
 -1.4701787e-03
  1.5447351e-02
 -8.9649826e-01
  8.7596726e-04
  5.6638865e-04
 -2.3628184e-01
  4.7342688e-01
  2.6700947e-02
  4.5943964e-01
 -2.9560423e-03
  1.7941744e-03
  8.3420210e-04
  1.4344397e+00
 -9.9557263e-05
 -2.6316789e-01
 -6.8051764e-04
  9.4584073e-04
  5.7533449e-03
  1.8592210e-03
 -1.1498155e-03
  3.5790952e-03
 -1.9280161e-04
 -5.2890455e-04
 -4.4649205e-04
 -1.6885954e-04
  1.7508808e-04
 -2.0238755e-03
  6.8042421e-04
  6.0459322e-01
  2.4484079e-03
 -1.2014430e-03
 -1.5887941e-03
  4.4893133e-03
 -1.5754144e-03
  1.1302099e-05
  6.1731768e-04
  2.6000754e-03
 -1.4358694e-03
  1.0089920e-03
 -9.2690124e-04
  6.2306309e-03
  4.7511776e-04
 -1.3765946e-03
  8.5482607e-03
  1.1715121e-01
  1.0719674e-02
 -6.1968656e-04
 -8.6765899e-04
  1.3786759e-03
 -7.9110474e-04
  8.8443558e-05
  1.0339640e-03
  3.2331487e-03
  2.7611337e-04
 -8.2438067e-04
  3.5127385e-03
 -3.4476575e-04
 -5.0707841e-01
  6.5550022e-04
  5.2302546e-04
 -4.7680375e-04
  8.4378589e-03
  8.3586521e-04
  1.0593984e-01
  2.0135343e-03
  1.5168366e-01
  1.0536595e-02
  3.6339213e-03
 -7.4332771e-03
  2.3189048e-01
  7.2448081e-03
  1.4108855e-01
 -2.2720080e-02
  5.5120065e-04
 -1.1345447e-03
  1.0002217e-03
  4.0474281e-02
 -3.5379830e-01
  1.0399101e-03
 -6.8603194e-04
  5.5712196e-03
  1.3518488e-04
 -1.2729198e-03
  1.0685539e-03
  1.0977049e-03
  8.1013059e-05
  2.9743270e-03
 -2.8245167e-03
  1.4532540e-03
  9.4865667e-05
 -5.3851510e-04
  1.5915172e-04
  9.0846093e-03
  4.5372432e-04
  8.3219056e-04
  9.5376223e-03
  1.1599694e-03
  6.8647228e-04
 -1.2949751e-05
 -2.5650964e-03
  1.6613778e-04
  8.4972841e-04
 -5.2156849e-03
  1.9161536e-03
  7.8049800e-03
 -1.4655996e-03
  5.1115859e-02
  4.9504018e-03
  4.5722813e-04
 -1.7124129e-04
  1.4405097e-03
 -1.7860520e-03
 -4.5231278e-03
  1.2019577e-03
  2.4261302e-03
 -1.6595316e-04
  1.5314587e-02
  2.2705393e-03
  2.2146134e-03
  3.0111012e-03
  1.2917162e-03
 -2.4113064e-03
  1.3628188e-03
 -7.4943656e-04
  1.3610590e-03
 -7.1984343e-04
 -7.2408980e-04
  1.3928210e-03
 -1.8847681e-03
 -2.8092319e-03
 -2.2907223e-04
 -2.3357393e-03
 -2.8273168e-03
 -6.6938798e-04
  2.0319999e-03
  1.5002467e-01
  3.2863785e-03
  1.0635203e-03
  4.9451843e-04
  1.6884494e-03
 -1.7710148e-03
  2.5472746e-03
 -5.4790650e-04
 -3.7988180e-03
  7.1383477e-04
  3.7801184e-03
 -1.0316235e+00
 -6.3234181e-03
 -2.8906824e-04
  9.1554114e-04
  2.9157032e-04
 -6.0568599e-04
 -1.9277898e-03
 -1.3662084e-03
  4.0188408e-03
  2.3089286e-03
 -2.4330881e-03
  2.4830215e-03
 -5.9680957e-01
  7.8607822e-04
 -4.8857095e-04
 -2.4394230e-03
 -2.0983263e-03
  4.0941074e-04
  2.3312983e-03
  3.2414857e-01
  2.7846890e-03
  2.4959134e-04
 -2.0462703e-03
  1.9728797e-03
  1.6199989e-03
 -4.8565776e-03
  9.7922546e-01
  3.8341843e-04
 -1.3283816e-03
 -6.6446206e-03
  1.0198004e-03
  9.4927684e-04
 -3.8390790e-04
  1.3085196e-04
  9.7821257e-04
  1.1446138e-03
  8.6388097e-04
 -1.2626178e-03
  3.5818161e-03
  1.1302184e-03
  4.4670450e-03
  2.5710257e-04
 -3.5837222e-02
  4.2158499e-04
  2.7266385e-03
  2.4600263e+00
  3.2723081e-01
  1.7040369e-01
  6.2312514e-01
  6.7688555e-01
  1.4461594e-02
  1.0913560e-01
 -4.4555709e-01
 -1.1891616e-01
 -8.7196410e-02
  4.3241074e-04
  2.1073963e-03
 -7.0425510e-02
  6.9790804e-03
 -8.2800157e-02
  1.0207239e+00
  5.5419171e-04
 -3.9768708e-03
 -9.1106351e-03
  8.2714879e-04
  2.9106715e-03
  1.1038538e-03
  4.7330442e-03
  1.2402090e-03
  7.2632569e-01
  1.1036556e-02
 -5.1785476e-04
  8.8947802e-04
 -5.0776780e-06
 -1.0161797e-04
  9.0241730e-01
  2.8357214e-05
  1.2955287e-01
  4.9400325e-03
 -5.3270650e-01
 -6.0819268e-01
 -9.2427980e-04
 -7.3872367e-04
 -1.5216958e-03
  3.3050996e-01
 -5.2056253e-02
  7.8169954e-01
  7.7151572e-03
 -2.6146278e-01
  6.4341701e-05
 -2.0288127e-03
 -1.5079221e-03
  2.5876681e-04
 -1.4144602e-01
 -1.2373499e-04
  1.6983488e-03
  3.0606720e-03
  1.5150103e-02
 -8.1281585e-04
 -1.0445208e-03
 -2.6910494e-03
 -3.8056493e-02
 -2.3171180e-03
  9.4459526e-04
  3.7620876e-03
  8.7901094e-04
 -2.3687346e-01
 -2.6777509e-01
 -3.6878714e-03
  2.8495498e-03
 -2.1332297e-01
 -5.7142635e-04
 -4.7553767e-02
 -1.7272186e-03
 -1.5221435e+00
  2.8573678e-04
  4.2329868e-03
  2.3340674e-03
  2.1088561e-04
 -1.2155507e-03
  2.9473249e-03
  8.6824784e-06
  6.5958413e-04
 -1.7409527e-03
 -2.7658900e-03
  3.6568777e-03
 -8.8998780e-04
  1.0955317e-03
 -4.7107693e-03
  7.0014806e-04
  9.7259499e-02
  2.4005491e-04
 -4.0932184e-01
  9.9799130e-04
  1.2226855e-04
 -5.9662969e-04
  2.9798797e-03
  1.3829648e-03
 -1.7826512e-03
 -6.0807035e-04
  1.1227592e-03
 -4.8377346e-03
 -3.3156443e-04
  5.3249928e-03
  4.7119756e-04
  1.1778540e-03
 -3.2687748e-03
 -7.4982960e-03
  5.9783593e-04
 -1.0630676e-01
 -2.8918468e-04
  3.2484466e-03
 -5.9344405e-03
 -1.3291239e-03
  6.1954604e-04
  9.1828384e-05
  8.0766308e-04
  3.3474736e-02
  3.5422572e-03
  2.1356605e-03
 -9.5422118e-04
  4.2236284e-03
 -1.7574586e-03
 -4.8528421e-03
  1.0765443e-02
 -9.4931712e-04
 -4.1948664e-03
 -3.5753399e-03
 -1.7473862e-03
  3.7269110e-03
 -1.0834219e-01
 -1.7635813e-01
 -1.0100948e-03
 -1.9374024e+00
  1.0095577e-03
 -2.3737848e-01
 -9.3463277e-03
 -6.1357517e-02
  3.2422197e-04
  8.6731045e-04
 -5.1522453e-04
  8.2054406e-02
 -2.4076977e-03
  7.0290238e-04
  5.2355081e-03
 -1.1310161e-03
  9.9923857e-04
 -1.2408155e-04
 -3.0474949e-03
  1.8426270e-03
 -7.2963315e-04
 -3.1734323e-03
 -1.7530577e-03
  5.8907218e-04
  1.8694694e-03
 -4.2878886e-04
 -9.2069659e-04
 -2.1410303e-03
 -4.7232048e-04
 -1.2310866e-01
 -2.5903198e-03
 -8.4912404e-04
  1.2923558e-03
  2.5025869e-04
 -1.9349500e-03
  6.2207301e-04
  3.3446841e-03
  7.4432530e-03
 -1.3150214e-02
  8.8075292e-04
 -2.5467181e-03
  4.2406863e-01
 -1.2230776e-01
 -2.4612804e-03
 -6.1734917e-04
 -9.5350709e-04
  2.2098443e-01
  1.4219750e-03
 -3.7496483e-03
 -1.6309040e-03
  3.9160799e-04
  4.7887093e-03
 -2.7367154e-03
 -2.1949175e-03
 -3.8233370e-04
 -3.3158443e-03
 -1.3227412e-03
 -4.7914225e-05
  5.3514459e-04
  6.3134357e-03
  1.4266635e-03
  1.5175846e+00
 -3.7557057e-03
  2.0810003e-04
  9.2960584e-01
  2.9844027e-02
  7.8546953e-01
 -3.4777582e-02
  4.2321888e-01
  3.2041836e+00
  2.3276404e-01
  1.3028658e-03
 -1.3150357e+00
 -1.9692548e-03
 -7.2820857e-04
  1.8294042e-02
  9.1750844e-04
  7.8848042e-03
 -3.6810830e-01
 -6.4573288e-01
 -6.4026564e-01
 -5.7710563e-03
 -9.9609062e-02
 -1.3823666e-01
 -8.0811757e-01
 -3.0151320e-01
 -6.6433055e-03
 -2.9226324e-01
 -1.2890220e-03
 -4.4817533e-03
 -3.7877224e-03
  1.8729549e-03
 -1.3331778e-03
 -2.2649230e-04
 -2.8502774e-01
 -9.5616997e-04
 -4.9882850e-01
 -1.0131021e+00
 -5.6806499e-01
 -1.2852682e-01
 -5.3405356e-02
  2.3862289e-04
  1.1524427e-01
  9.0431474e-02
  8.7006882e-02
 -5.4966432e-01
  9.8056614e-02
 -6.0826063e-01
 -5.0882674e-03
 -7.8486837e-03
  2.4189497e-03
  1.8241704e-02
  1.0406497e-04
 -7.2386413e-04
  3.2598813e-04
  2.9441727e-02
  1.2633003e-03
 -6.0958997e-03
 -1.0882326e-03
 -5.8133042e-01
  6.1556296e-03
 -1.7141709e-05
 -4.1609153e-04
  1.1409063e-01
  1.0657329e-02
 -1.6092657e-01
 -6.2097744e-03
 -1.9881576e-01
 -7.1413357e-05
 -8.6544398e-03
  9.5703728e-02
 -1.6568238e-01
  7.3500397e-04
 -1.4667410e-01
  8.3235942e-04
  4.2900638e-04
 -1.7163499e-03
  1.7847240e-03
 -2.2813573e-03
  4.2510778e-04
  9.9842239e-04
  5.3890800e-04
 -2.2401353e-03
 -1.0386432e-03
 -1.2555040e-01
  2.2603513e-03
 -2.2024967e-04
 -5.5403203e-02
  9.9403388e-04
  2.4222904e-03
 -7.1863085e-04
  1.9702855e-03
 -3.3530656e-03
 -1.1746768e-03
 -2.4212231e-03
  5.5595940e-01
  1.5433682e-03
  7.9527055e-04
 -8.9113956e-04
 -4.1074937e-04
  1.0489820e-03
 -2.1654128e-03
  5.6373863e-04
 -4.3423161e-06
 -1.3817728e-03
 -1.1050205e-03
 -1.5453308e-02
  1.4914197e-03
 -6.7928620e-02
 -8.8126995e-03
  3.0548740e-03
 -1.0755912e-03
 -7.1298899e-03
  2.5524164e-03
  1.1789962e-04
 -1.1483489e-03
  1.1946668e-03
 -5.1204924e-04
 -4.4824090e-04
  4.5672758e-04
  2.0357710e-03
  2.1063357e-03
 -4.3267696e-04
  1.8675374e-03
 -2.7361573e-04
  2.4139804e-03
  5.5283058e-04
 -1.4769963e-03
 -2.2090864e-03
  3.0177592e-03
 -1.3158807e+00
  6.3092081e-04
  4.7596037e-01
  2.7113271e+00
 -3.6515588e-01
 -1.0621574e-02
 -3.7006509e-01
  4.9726283e-03
  2.5067425e-01
  9.7373268e-03
 -1.0798205e+00
 -1.3884734e-03
 -2.1099162e-01
 -3.1642357e-05
  2.3404695e-01
 -1.3822383e-01
 -2.9611946e-04
 -1.4102894e-04
  4.0561896e-02
 -3.0886717e-04
 -2.3796325e-04
  3.7154178e-03
 -1.0710056e-02
  3.6867172e-03
 -2.8655518e-04
 -7.3327817e-04
 -8.9035435e-03
 -1.9339419e-03
 -9.6112344e-04
  9.4177369e-03
 -3.4882635e-01
 -3.3079488e-03
 -2.5530851e-01
 -8.5393421e-04
  4.7510955e-03
 -1.1291714e-04
  7.0832082e-04
 -3.7875344e-04
 -5.1069308e-02
 -1.4489067e-01
 -1.7428529e-03
 -7.1900316e-02
  1.1746340e-03
 -6.8096672e-03
  2.1641003e-04
  1.4354227e-04
  8.9233957e-04
  9.5545308e-04
 -1.6238805e-03
  1.0956648e-03
  1.4136845e-03
  1.0300428e-03
  1.8402914e-03
 -1.0509493e-04
 -1.1596794e-03
  1.9374941e-01
  6.5012919e-03
 -9.3217235e-04
 -2.5073821e-03
  1.0628155e-03
 -9.3745058e-03
  9.3901850e-04
  1.1752986e+00
 -6.4806616e-01
 -9.3446296e-01
  4.8532543e-01
 -5.9564922e-02
  1.5716581e+00
 -6.5743867e-03
 -1.3645980e+00
 -1.5921800e+00
  7.7124602e-01
  1.3371528e+00
  2.0578310e-01
  3.2447234e-01
 -2.2509826e-02
  1.5318152e-01
  1.4357205e-01
 -1.3369601e+00
 -3.9843354e-01
  3.0827769e-03
 -1.7961074e-02
  1.3235801e-01
 -6.7848456e-01
 -1.6832865e-03
  4.5947044e-04
 -1.0522792e-01
 -1.7779651e-01
 -3.1795043e-01
  6.9803035e-01
 -1.2607750e-02
  9.2499715e-01
  4.5957966e-04
  1.2458560e-01
  8.8942021e-01
  3.3592513e-01
 -2.0875323e+00
  5.8082885e-01
  1.5714964e+00
  2.5421587e-01
  1.8430096e-01
 -1.9037509e-03
 -2.5397164e-01
  4.2554266e-03
  1.0671492e+00
 -1.8135730e+00
  4.1862939e-02
 -8.3304541e-03
 -1.7364902e-04
  2.6232508e-04
 -2.2145035e-04
 -3.6990820e-04
  2.1395823e-03
  6.3852541e-02
  2.3226473e-02
  3.6226853e-03
 -3.0023509e-03
  4.1651912e-04
  1.8946646e-03
  1.3836549e-03
 -5.5012538e-04
  2.8724776e-04
 -4.9357361e-04
 -4.2686456e-01
 -7.5665906e-02
 -5.8970094e-02
 -2.3825754e-01
 -9.6188614e-04
 -6.1498191e-03
  1.1302440e-02
 -1.5999182e-01
 -8.5114024e-04
 -6.4884466e-01
  3.0472169e-03
  2.4575943e-03
  1.7607474e-04
  1.7882840e-03
  4.5349923e-04
  2.3728514e-03
  2.9398240e-03
  1.8368215e-05
 -8.7255295e-03
  3.9108648e-04
  3.0986013e-04
  4.6728397e-05
  1.4198897e-03
  1.7856344e-04
 -2.4674791e-03
 -3.0544467e-04
 -8.2444050e-04
 -1.0259276e-04
 -1.2295808e-03
  6.8294798e-04
 -1.3167299e-03
  8.3607127e-04
  2.3702408e-01
  5.2157557e-04
 -5.6205406e-03
 -7.6316390e-04
 -2.6246223e-03
 -1.5754731e-02
  2.2031789e-01
  9.0394658e-04
 -4.6014375e-05
 -1.1006246e-03
 -5.4370373e-01
 -7.1671951e-01
 -1.0171390e-01
 -2.9649304e-03
  1.5669203e-03
  9.0622091e-01
 -2.0017233e-03
 -8.8269357e-04
 -2.3159948e-03
 -9.8364346e-04
 -1.7147361e-04
  9.0870837e-04
 -1.4754722e-03
  1.0193459e-03
  8.4850282e-05
 -1.2073620e-03
 -4.1277628e-04
 -2.0798738e-03
 -7.5975811e-05
  2.2837350e-03
 -2.4659908e-03
 -4.5493842e-04
 -3.9482719e-04
 -3.7106299e-01
 -1.8268381e-01
 -7.4264877e-02
 -2.4208196e-01
 -3.8062954e-01
 -3.0652338e-01
 -1.4721325e-03
 -3.0742103e-01
  4.6387264e-01
  1.8966540e-03
  1.6034568e-03
  1.2581443e-03
  1.6403544e-03
 -3.2062028e-04
 -7.0553104e-04
 -2.6873025e-04
 -7.4005872e-01
 -1.0162294e-03
  2.2105724e-03
 -1.9940925e-03
  2.2943673e-04
 -2.6066143e-03
 -5.3385966e-02
  1.0095818e-03
  1.2844558e-02
 -1.4198449e-02
  2.6243634e-04
  5.6202151e-03
 -1.3706383e-02
 -2.5748063e-03
 -5.9053833e-05
 -7.2595589e-03
 -4.2527006e-03
 -6.3975796e-02
  2.7063407e-04
  5.1164827e-03
 -2.5292591e-04
 -7.2485590e-03
 -3.0385744e-04
 -2.9276928e-04
 -1.8258007e-01
 -6.0253497e-03
  2.5541565e-01
 -6.3562274e-02
  5.7610148e-04
 -2.6140043e-03
  2.8301484e-03
  1.5382037e-03
  7.7887077e-04
  9.8625263e-03
  1.7500665e-03
  7.4550118e-03
  6.0219102e-04
 -1.9708794e-01
 -2.6388490e-03
 -9.9258660e-04
  1.5335699e+00
 -4.3555582e-03
  2.3228470e-03
  2.3664022e-03
 -3.1310771e-04
 -4.3097581e-03
 -4.3726139e-04
 -2.0338446e-01
 -4.7462162e-01
 -5.4891570e-04
 -1.1065310e+00
  1.7917460e+00
  1.1127397e-01
  4.0781105e-01
  4.2982465e-01
  1.1787758e-02
 -2.6690024e-03
 -1.1598689e-01
 -1.0102069e-02
  1.3010242e-04
  6.4105266e-01
 -7.0526069e-03
  1.0212898e+00
 -4.2714117e-04
  1.8615116e-01
  1.4006094e-03
  6.7678075e-03
  2.8980797e-04
  4.2214151e-02
 -1.3560511e+00
  8.9902466e-04
  1.2807178e-01
  4.2141268e-01
  1.2565945e-02
 -1.8532397e-03
 -3.7451723e-01
  3.0421265e-04
 -5.0015510e-03
  3.9020070e-01
 -1.0177521e-03
  4.0282068e-01
  8.0713248e-01
 -2.4115631e-02
 -1.2136592e-01
 -8.5162548e-03
 -3.2101253e-01
  6.6087325e-04
 -5.7920557e-03
  1.9002771e-01
 -1.7195863e+00
  2.5547724e-03
 -4.4543934e-01
  1.9778714e-03
  8.6973171e-04
 -2.0284147e-03
  1.7328945e-03
  8.3338236e-05
  1.6692282e-03
  5.0566846e-04
 -1.8161386e-03
  6.9374085e-04
  1.6875198e-03
  1.7638481e-04
 -1.2348985e-03
  2.3791681e-03
 -1.0069282e-03
 -1.2944542e-02
  6.8157823e-03
  2.3471828e-01
 -1.1817990e-03
  1.9791062e+00
 -1.2966368e+00
 -3.6406678e-01
  3.0101028e-01
 -7.3295315e-03
  2.4552422e+00
  7.6040888e-01
  8.5399461e-01
  1.8949153e+00
 -1.4257008e+00
 -8.2346492e-02
 -2.4371164e-02
  2.2571854e-01
  4.6634045e-01
 -5.2219504e-01
 -3.2550372e-02
  1.3074945e+00
 -5.6859004e-01
 -2.8561231e-01
 -1.0545698e+00
 -4.4966498e-03
  1.6849107e+00
 -1.0200680e-01
 -7.8565377e-01
  1.8715712e-01
  7.5694740e-01
  1.8536504e-02
 -6.4964813e-01
  1.8155716e-01
  6.1245728e-02
  5.7969283e-04
 -5.3670311e-01
  1.3716313e-01
  2.6655298e-01
  5.2116656e-01
 -6.8289578e-01
  1.2593573e+00
 -1.1004282e-02
  5.1311278e-01
  6.9914323e-01
 -1.5990847e+00
  6.6178459e-01
  7.9205823e-01
 -7.6658034e-01
 -1.0274743e+00
  1.0513739e-03
 -5.7427137e-04
 -1.9157688e-01
 -3.2090343e-04
 -4.7966513e-01
  4.1377418e-05
 -2.6694480e-01
 -2.9260898e-01
 -1.6212516e-03
 -2.6255267e-04
 -4.0139398e-03
  3.6129174e-01
 -6.8998104e-04
  2.0745131e-01
  2.2853729e-04
  3.4741294e-01
  3.7303311e-01
 -9.8108849e-04
 -4.8297259e-01
 -4.6216613e-01
 -3.9431617e-01
  2.6583388e-01
  2.3005905e-02
 -1.5281065e-01
 -6.4501800e-02
 -4.1282004e-01
  3.0716959e-01
  2.9834440e-01
  8.4933673e-04
 -1.1957752e-03
 -1.3895044e-03
 -1.2585917e-01
  1.3701454e-03
 -1.3740470e-02
  3.0391937e-01
  5.0886895e-04
 -8.8992511e-04
  3.4689404e-02
 -5.9450231e-04
 -1.0014141e-01
  2.2938312e-03
  8.1021851e-03
  1.2636457e-03
 -9.2356056e-02
 -2.7839134e-03
  2.7828583e-01
 -1.0811124e-02
 -2.1213370e-03
 -3.4246263e-03
 -1.4273089e-01
  6.5469788e-04
 -4.5255414e-01
 -9.0926299e-03
  8.6604627e-03
  2.5103388e-03
  5.2931113e-04
  1.3146561e-03
 -1.1179444e-03
 -2.1967994e-01
  2.3268956e-04
 -7.8965835e-02
 -2.5601534e-03
  6.3727484e-03
 -2.5609359e-03
  8.9496039e-05
 -2.4948721e-03
 -6.6904078e-04
  3.3642774e-04
  2.4786507e-04
  4.3128148e-01
 -1.7641892e-04
 -4.7437541e-04
 -6.0946494e-03
 -2.5135281e-03
  1.4248454e-03
  3.3493349e-03
 -7.7152892e-04
 -2.3326427e-01
  1.7719383e-03
 -8.5672952e-02
  8.1409723e-04
  1.1292937e-02
  5.2022219e-01
  7.4562980e-03
  2.3844166e-02
 -3.4339279e-01
 -1.0026035e-02
 -3.8371929e-03
  5.2100964e-02
 -5.7566608e-03
 -1.0084823e-02
  2.6163593e-04
 -1.5687668e-03
  5.5956695e-04
 -2.9517163e-04
 -1.0136676e-03
  1.4168279e-04
  5.5650942e-04
 -1.6072551e-03
 -2.4568865e-03
 -5.1539047e-03
  4.9789937e-04
  1.5960777e-03
  2.6670666e-04
 -1.3685224e-03
 -5.5858789e-05
  3.2569517e-03
 -2.0285335e-03
  5.2258779e-06
  4.3464565e-01
  1.8818758e-02
 -5.2198913e-04
 -4.8671389e-04
 -8.0431224e-04
  2.7849707e-01
  9.3254736e-03
 -1.7468130e-02
 -2.0286900e-03
 -5.6921056e-04
  5.6100381e-04
 -2.2815515e-03
  3.6836534e-03
  1.5119808e-03
  2.5640729e-01
  1.4235560e-03
  4.7122338e-03
  4.3506864e-03
 -9.2271992e-05
  1.8675886e-03
  5.6231651e-04
  3.1261786e-04
  2.4690512e-03
  4.2663273e-04
  5.4528158e-02
 -1.2431071e-03
 -3.6739593e-03
 -1.1186033e-03
 -2.8082163e-03
  3.5531442e-03
  8.5641816e-03
 -1.6167600e-04
 -4.9911338e-01
  5.6100413e-03
 -3.1505788e-03
 -7.2922222e-03
 -2.2407052e-01
 -1.2270261e-03
 -2.9383556e-04
  2.9934227e-01
 -3.0044979e-01
 -1.3791790e-04
 -1.6815032e-01
  7.2827591e-03
  7.3461076e-03
  1.5939617e-03
  1.0574368e-03
 -4.2088248e-04
 -4.3542916e-03
 -7.9979008e-04
  2.3708773e-04
 -1.6011944e-01
 -1.5908179e-03
 -7.6016801e-04
 -1.2470331e-03
  1.4864375e-03
 -2.0308469e-03
  2.2065614e-01
 -2.1460194e-03
  6.5296215e-01
 -1.1713308e-03
  1.0316732e-03
  2.0099955e-03
  1.3353117e-01
 -2.6853157e-03
  5.4798369e-05
 -4.2655668e-03
  2.1513566e-04
 -1.3233685e-02
 -1.3939004e-03
 -1.8139668e-04
  1.9335485e-03
 -1.7219824e-04
 -1.1712882e-03
  6.1423291e-04
 -1.3436291e-02
  9.6632115e-04
 -1.1993520e-01
 -5.7238401e-03
  1.7915410e-03
  1.4529167e-03
  2.4418553e-04
 -3.2070470e-01
  3.3416800e-04
  1.2678029e-03
 -1.0704465e-03
  3.3435097e-03
  1.1433179e-03
 -3.4170258e-03
  3.2709115e-03
 -6.1269832e-01
  4.8721526e-04
  1.3521793e-03
 -4.1651702e-04
 -1.1239770e-03
 -1.1034944e-03
  7.2322990e-05
 -1.4256448e-03
  6.6350698e-01
  4.0766690e-02
 -2.4683904e-04
  1.8974814e-03
 -1.8826833e-03
  7.2928354e-02
  1.9211312e-03
  8.0145597e-03
 -4.6840030e-01
  3.4513141e-03
  1.6952607e-01
  9.4327849e-04
  2.4266345e-05
 -1.3418199e-03
  5.7911067e-03
  1.5663896e-03
  6.1508006e-04
 -8.0996106e-04
  2.2360799e-03
  2.4077257e-03
  5.0405925e-03
 -9.4447809e-05
 -6.6413637e-03
 -2.4889401e-04
 -5.5756010e-03
 -3.2862488e-03
 -8.0141499e-06
 -1.8438314e+00
 -1.3899518e-03
  1.0051823e-03
  1.0749894e-03
 -9.4373441e-01
 -2.0509742e-03
 -3.1454223e-01
  3.4548610e-02
 -1.5932828e-04
 -3.1830289e-03
  8.2461593e-05
 -6.4437173e-04
 -1.0916576e-04
  1.3843981e-03
 -1.5414290e-03
  3.6277919e+00
 -1.9713466e-03
 -8.0663580e-03
 -8.3520741e-04
  5.4028410e-01
  2.2018326e-03
  2.4800736e-04
 -3.1442596e-03
 -3.3793128e-03
 -1.3170798e-03
  5.7129370e-04
  1.0249800e-03
  4.2030267e-02
  2.0802987e-03
  6.1785558e-04
 -5.8814959e-04
 -2.3374599e-01
  4.6335742e-02
 -2.6886424e-03
 -3.4189587e-03
  1.8045212e-03
 -1.9516727e-02
 -3.9578539e-01
 -2.0259596e-02
 -1.8274464e-01
  2.3216999e+00
 -7.1064943e-01
 -2.8006651e-02
 -3.4704188e-01
  4.4442909e-03
  1.2579484e-01
  3.6008022e-04
  1.5811818e-03
 -2.5288439e-03
 -8.1840925e-02
 -1.8009581e-05
 -8.7441958e-04
  1.5597171e+00
 -1.5208365e-04
 -4.4241869e-03
  3.5399254e-03
 -6.4636916e-03
  9.7240694e-03
 -1.1222558e-03
 -3.6204892e-04
 -1.6589907e-03
 -1.4760923e-03
  9.5259969e-04
 -5.3745410e-03
  4.9726083e-03
 -1.0464542e-03
 -2.4397252e-03
 -2.8247073e-02
 -1.4409242e-03
 -1.3411441e-02
 -1.0067926e-03
 -3.3339555e-03
 -1.7544160e-02
  3.9829570e-03
 -1.0807558e-03
  1.0774934e-03
  3.8460604e-04
  1.3184072e-03
 -1.3918076e-01
 -2.2441885e-04
 -5.7386851e-04
  7.3908921e-04
 -1.9688325e-03
 -1.7252401e-03
  9.1300451e-04
  2.2264067e-03
  3.1574513e-04
 -2.5949660e-03
 -2.8948206e-03
  1.5151952e-03
 -7.0140418e-04
 -2.7280997e-03
  1.5417779e-03
  1.4630278e-03
 -6.2624966e-03
  1.2485533e-02
 -1.2493965e-03
 -1.7648252e-02
 -2.2442786e-04
 -1.8838452e-02
 -2.2124247e-01
 -3.5624459e-02
 -6.2246811e-02
  6.6459656e-02
 -2.1000680e-02
  6.8257924e-04
 -9.1597617e-02
  2.0122239e-02
  4.0107055e-04
  7.0328668e-02
 -3.0559639e-04
 -6.4939694e-03
 -9.3488605e-05
  3.4771212e-03
 -4.8869860e-04
 -1.1450992e-02
  8.8079041e-04
 -3.2857267e-04
 -2.8269761e-03
  5.5287045e-04
  2.5943617e-04
  4.5335597e-01
  1.7197934e-03
 -4.0925085e-03
  6.2293338e-04
 -3.8382664e-04
 -2.4437993e-03
 -4.9803001e-03
  1.0186884e-04
 -2.1534250e-03
  2.3295456e-03
  7.9788655e-02
 -6.1152880e-03
 -2.1533323e-02
  4.2671217e-03
  7.0988908e-02
  4.6250326e-04
 -6.3986093e-04
 -4.7325891e-01
  4.8836338e-04
 -8.1223641e-03
 -7.9808928e-02
 -7.6902383e-03
 -4.5429243e-04
 -2.8111823e-03
  3.0884007e-03
 -3.1793884e-03
 -6.5067969e-04
 -3.7871604e-03
  6.2456643e-03
  1.5037038e-02
  2.5652251e-03
  5.0321277e-03
 -1.0455695e-03
 -2.9044263e-03
 -9.4452588e-04
 -5.9322792e-04
  9.1869355e-05
  2.1446902e-04
 -9.2603941e-04
  1.0818818e-04
 -5.1500858e-04
  7.2356515e-02
  6.0389572e-01
  5.0757802e-01
  2.7919784e-01
  7.5769210e-01
  1.7268336e+00
  5.5953854e-01
  7.6379448e-02
 -5.5991107e-01
 -2.1661842e+00
  1.1278886e-03
  3.0315339e-04
  5.6634646e-02
 -3.0587548e-03
 -3.1938210e-01
 -4.8761308e-01
 -5.2665256e-02
 -5.0938353e-03
 -1.8331270e-03
 -1.5403695e-01
 -4.4459570e-03
  5.9977621e-01
 -3.1576607e-01
  1.0220156e-03
 -7.7975113e-03
  1.9184236e-01
 -2.3769229e-03
 -3.0225733e-01
  1.5791936e-01
 -2.3900700e-04
  2.3507380e-05
  3.6209092e-01
 -1.7596100e-01
  1.1800048e-02
  3.4957185e-01
 -1.4519507e-01
 -4.7125787e-01
 -1.1714375e-01
 -7.2824140e-04
  5.5986577e-01
 -3.8770968e-01
  3.5650332e-02
 -5.2863002e-01
  1.8642975e-01
 -6.3485457e-03
 -2.5972913e-03
 -1.1524300e-03
 -1.1129189e-02
  2.1592983e-04
 -8.0524288e-02
 -9.5336878e-04
  8.5246953e-04
 -3.0389566e-02
  1.5193080e-03
  4.7173357e-04
  3.6093707e-03
 -1.3379869e-03
  1.6093970e-03
  3.3413253e-03
  1.2324348e-03
  1.5804810e-02
  2.0487621e-01
  4.0951878e-04
  3.2844174e-01
 -2.3079408e-02
  6.2273082e-04
 -2.3766948e-02
  1.8188320e-02
 -2.0496078e-01
 -3.5439609e-03
 -1.3790450e-01
 -3.3556281e-03
 -1.8304362e-03
 -3.6167360e-03
  3.9186798e-05
  3.1082416e-03
 -2.1350691e-03
  2.5903566e-03
  1.3973365e-03
 -3.5853076e-03
 -5.0781751e-03
  3.3043621e-03
 -1.2279636e-03
  8.2442832e-01
  2.4187645e-04
 -1.1175132e-03
  2.5041685e-03
  6.9555737e-02
  3.9570726e-04
 -1.8750386e-01
 -4.2212883e-01
 -7.1350735e-04
 -2.5027222e-03
  6.6964672e-04
 -1.0806504e-03
  2.7082968e-04
 -1.2950983e-03
 -4.1085938e-01
 -2.6222256e-03
 -6.6406637e-02
 -2.4387930e-04
  4.0209121e-03
 -1.3255704e-03
  1.0132445e+00
 -2.2943837e-03
 -3.8725126e-01
 -1.9204447e-02
  1.1607126e-03
  1.7633076e-03
 -2.1181204e-03
 -7.3907874e-04
 -1.0364107e-03
  5.7261634e-05
  7.4462633e-04
 -1.4025136e-03
  2.4259526e-03
 -2.8672686e-03
 -6.0250552e-04
 -2.8362272e-03
 -2.4311298e-03
 -2.5060892e-01
  3.7628089e-04
 -5.9588405e-05
  2.6002345e-03
 -2.1078516e-02
  8.5400417e-04
 -2.1149605e-03
 -4.4547487e-02
  4.5537265e-04
 -1.8638389e-03
  1.0573643e-01
  2.8599371e-04
  1.4281102e-03
 -1.6029570e-03
  1.5305163e-04
  1.6376690e-04
  1.1835522e-03
  6.2469742e-03
 -5.4430764e-04
 -2.3467776e-03
  5.2309333e-05
  1.3483278e-04
 -2.6140708e-01
 -4.6193888e-03
  6.0683344e-03
  2.0416214e-03
  6.6606293e-04
 -6.0407114e-03
  1.1103394e-02
  2.4120861e-03
 -8.2028046e-04
 -2.7513613e-03
 -4.2082947e-03
 -2.5791207e-03
  7.9504000e-03
  2.3635063e-02
  4.1791949e-01
 -1.2212421e-02
  2.9263450e-04
 -2.1195890e-01
 -1.8590342e+00
  3.3178690e-03
 -1.3640601e-02
  2.2616612e-03
 -1.0203482e-03
  1.0032067e-03
 -2.7272990e-03
 -1.7466354e-04
 -1.1674218e+00
  2.6797267e-04
  1.2896494e-04
 -1.8489313e-03
  3.8761037e-04
  7.6507230e-04
  6.1496173e-04
 -8.8092225e-04
 -2.1232755e-03
 -5.6449446e-04
  2.2788970e-03
  7.9432856e-03
  4.2069806e-03
 -2.1964728e-03
  9.6632238e-04
 -8.4995717e-04
  9.3652656e-05
  2.9728960e-03
  1.9652511e-03
 -3.4634359e-04
  1.3459580e-02
 -3.9735414e-02
 -3.1190085e-01
 -2.4862722e-02
 -1.1191568e-02
  1.3578431e-01
 -2.5573269e-01
 -6.4725704e-02
 -1.3454200e-01
  4.9048387e-03
  5.7037841e-03
 -4.3833462e-04
  1.4532433e-02
  1.2147242e-03
 -5.2935998e-03
 -2.3247267e-03
  1.6878984e+00
 -1.8155791e-02
  4.3430850e-03
  2.4684467e-03
  1.1095682e-03
 -7.6426972e-05
 -1.1088748e-02
 -5.4557360e-05
  6.6386902e-04
 -6.0406904e-04
  4.4839887e-04
 -3.2433547e-04
  1.5646355e-03
  3.9980914e-03
 -1.6231568e-01
  1.6338670e-03
 -2.1621050e-02
  1.2170954e-03
 -1.4507519e-03
 -1.7552039e-01
  2.7473276e-03
 -4.2149727e-04
 -1.4718676e-03
  8.4286113e-04
 -6.4372164e-03
 -4.8553739e-03
 -8.4624597e-04
 -2.4163788e-02
  7.2676747e-05
 -2.1602413e-04
  2.4749178e-03
  2.1907247e-03
 -6.8692997e-04
  9.8123378e-04
  4.3647945e-02
 -1.3119209e-03
 -2.0583445e-04
 -5.2516820e-04
 -1.8162383e-03
 -3.9780367e-02
  9.1235357e-04
 -4.7623215e-04
 -2.1616912e-01
 -6.9273352e-05
 -8.7761891e-04
 -3.1730053e-03
 -1.1046223e-01
 -1.2240804e-03
 -7.1758754e-04
  1.1293278e-03
  1.1661255e-01
  2.9339357e-03
  3.4429526e-03
  1.1776148e-03
  1.3923126e-03
  1.7860302e-04
 -7.0033653e-04
  1.3201195e-04
 -1.2828954e-03
  2.3327768e-04
  6.0012465e-04
  7.6915498e-04
 -1.7604932e-04
 -1.2189520e-03
 -3.3165756e-04
 -2.4212303e-04
  2.2482763e-04
  7.2803407e-04
  4.1400725e-03
 -2.8040782e-03
  1.2768195e-03
 -1.6986345e-03
  1.1069133e-03
 -2.8938957e-04
  2.9114956e-01
 -2.2333760e-03
  1.6523787e-03
 -2.3485918e-03
 -1.1456079e-03
 -6.6055633e-02
 -7.2801515e-04
 -1.3567928e-03
 -1.0492370e-03
 -3.8384559e-04
  2.9214355e-04
 -6.1252103e-05
  2.6540614e-03
  3.7240339e-04
  2.0945467e-02
  1.2654844e-03
  2.0334695e-03
 -9.2747906e-04
 -2.8718822e-03
  1.8298726e-03
  2.6774258e-04
 -7.5219490e-04
  6.7499408e-05
  3.2960181e-04
  2.8923141e-02
  2.0818393e-04
 -2.0195360e-04
  1.5417846e-03
 -3.2199122e-04
  3.6209393e-03
 -1.2053857e-03
 -2.6324813e-03
 -1.0154925e-03
 -2.8141385e-03
  3.5559603e-03
 -8.9152117e-04
  6.7121431e-02
 -6.2978655e-02
 -1.0350569e-01
 -2.2087377e-01
 -1.7467715e-01
  2.1081313e-01
 -7.2871938e-02
 -1.7898012e+00
 -8.5823633e-02
 -3.9594326e-02
  5.5322307e-03
  2.2880547e-03
 -3.7994151e-04
  4.3308414e-03
  4.1337255e-03
  7.4039499e-04
 -1.6951577e-03
  2.4724315e-01
  4.4917775e-05
  4.6734736e-04
 -9.6414390e-04
 -6.9617825e-03
  2.3340668e-01
  2.3186507e-03
  3.0183427e-03
 -9.5575070e-04
  8.5669482e-04
 -4.1596307e-03
  1.9902084e-03
 -1.6446067e+00
 -1.7708181e-01
  5.7618605e-04
 -4.6199453e-03
  7.1892765e-04
  3.1992835e-03
  9.1463052e-02
  1.3735639e-02
  5.9029505e-02
  3.0896063e-05
 -2.0014001e-03
 -4.7646868e-03
 -5.3341788e-01
 -1.5059007e-02
 -1.1959226e-01
  1.3904551e-01
  1.5930104e+00
  2.2215862e-03
  2.3529222e-03
 -2.0515290e-03
 -1.8856338e-03
 -1.1213313e-01
  4.5751133e-03
  1.1548735e-03
  3.9032141e-03
  1.9449646e-05
 -8.6769689e-04
 -4.0381388e-03
  2.0516289e-03
  7.2358985e-04
 -8.2390495e-03
  7.2403619e-04
  3.7454261e-04
 -2.5615036e-02
 -2.2936596e-03
  2.5432071e-01
  3.0575547e-01
 -5.0675841e-03
  9.5439047e-02
 -1.5135348e-01
  1.4983204e-01
  7.5849140e-04
  1.4605701e-01
 -4.2336746e-03
  2.1523912e-03
 -1.2748546e-03
 -3.7519194e-03
  9.1112970e-04
 -1.1690888e-03
  3.8505995e-04
 -3.9356915e-04
  9.1865013e-04
  2.2999013e-03
 -1.9418201e-03
 -1.9262926e-04
  9.1701057e-03
  1.3443724e-03
 -7.5361272e-04
 -2.3757212e-03
  2.6949532e-03
  2.3841707e-03
  2.9666009e-04
  5.0804566e-04
  1.1749786e-03
 -1.2020463e-03
  2.0327407e-03
  1.4951013e-03
  6.7278778e-04
  3.4429686e-04
  1.7823570e-03
  7.5367332e-04
 -1.5477522e-01
  1.8855371e-01
  1.2022789e-01
  5.0126081e-03
 -4.0170705e-04
 -5.0860927e-03
  5.2643549e-02
  1.7767049e-01
  1.4598918e-03
  1.9840675e-03
 -1.4032342e-03
  7.3810830e-04
  3.2865014e-03
 -2.7896098e-03
  5.6717364e-04
 -8.2843140e-04
 -1.0951073e-03
 -4.8020100e-03
 -1.9422611e-03
 -5.9287780e-04
 -3.9749327e-03
 -6.2444122e-03
  7.0759695e-04
 -1.6610697e-03
  2.0579603e-03
 -3.1611593e-03
 -2.9200423e+00
 -3.3961155e-04
  4.6804783e-01
  1.0676226e-03
 -3.1860864e-03
 -6.8276815e-02
  1.7298542e-01
 -1.8104627e-03
  5.0741766e-02
 -7.5620888e-03
 -3.0583360e-03
 -2.0213672e-03
  8.9830277e-04
  2.8847749e-04
  1.8240878e-03
 -3.0580787e-03
  1.7432931e-03
 -9.6022215e-04
 -2.6063866e-04
  4.8546764e-04
  2.4947556e-02
 -5.5422883e-05
  8.2246251e-02
 -6.9642654e-03
 -4.6243280e-04
 -3.8307155e-03
  5.8027022e-03
 -3.7247345e-03
  1.5126272e-03
 -5.4676610e-04
  6.0774861e-03
  2.5644398e-03
  7.3460913e-03
 -6.5654451e-03
  9.3387052e-02
  2.5471745e-03
  1.5912164e-04
 -2.4503947e-03
 -6.9755706e-04
  6.4776780e-04
 -1.4419864e-03
 -2.7351093e-04
  9.0569156e-05
  2.0914674e-02
  1.2570744e+00
  6.8035074e-02
  7.0518086e-04
  5.1607373e-03
 -1.3631913e-03
 -8.1710127e-04
 -1.6052432e-04
 -1.0145989e-03
  2.0079056e-03
 -6.0309540e-03
  5.5704542e-05
  2.1777523e-03
 -2.0138198e-04
 -7.7816652e-04
 -2.1254143e-04
  3.4078034e-03
 -1.2583039e-03
 -3.5375962e-04
  1.3010978e-03
  5.3503021e-04
  2.9887662e-03
  8.8605713e-03
  4.0784011e+00
 -9.1368228e-04
  2.1088845e-04
  5.1234583e-03
 -1.6571784e+00
 -1.6309682e-03
 -1.5340000e-03
  2.0936385e-03
  1.4652156e+00
  2.2899825e-03
 -5.2225641e-03
 -6.5418414e-04
  5.5641024e-03
 -8.9442797e-02
 -7.5963367e-04
 -1.1131378e-04
  5.1085958e-03
  5.1196251e-04
 -6.1855331e-04
  2.4483030e-04
  1.7869592e+00
 -6.5423182e-04
 -1.4237725e-03
 -1.4964690e-03
 -1.0459132e-03
 -3.6011823e-03
  1.1358847e-03
 -7.1572181e-04
  2.6363661e-03
  2.6577993e-03
 -1.3922800e-04
  1.5626950e-02
  6.3144197e-03
  1.2164697e-03
 -3.1150447e-04
  2.9919504e-03
 -6.8247883e-04
  1.5903377e-03
  3.7682493e-04
  2.3463514e-01
  3.9686587e-01
  2.4711082e-02
  7.6624972e-04
 -8.7079301e-04
  2.2983391e-04
 -3.5042721e-01
  3.7273306e-03
 -1.0724847e-03
  4.2149480e-03
  3.2931266e-04
 -2.0454277e-03
 -1.2620476e-03
 -3.5396992e-04
  1.8768517e-04
  1.7141181e-04
 -2.0544506e-03
  1.0610631e-04
  2.3498249e-03
  1.8603841e-02
  4.1859113e-02
 -4.8537115e-03
  9.5829636e-01
 -8.1362218e-01
 -9.7371534e-02
  1.6935847e+00
  2.0585174e-02
 -7.0857441e-01
 -3.7092950e-02
 -2.2569732e-01
  1.1356419e-01
 -1.2515588e-03
 -1.2660426e-03
